digraph Tree {
node [shape=box, style="filled, rounded", color="black", fontname=helvetica] ;
edge [fontname=helvetica] ;
0 [label="IsAlone_0 <= 0.5\ngini = 0.465\nsamples = 663\nvalue = [662, 385]\nclass = Died", fillcolor="#e581396b"] ;
1 [label="Sex_1 <= 0.5\ngini = 0.418\nsamples = 398\nvalue = [443, 188]\nclass = Died", fillcolor="#e5813993"] ;
0 -> 1 [labeldistance=2.5, labelangle=45, headlabel="True"] ;
2 [label="Embarked <= 0.5\ngini = 0.281\nsamples = 101\nvalue = [27, 133]\nclass = Survived", fillcolor="#399de5cb"] ;
1 -> 2 ;
3 [label="Fare <= 1.5\ngini = 0.302\nsamples = 61\nvalue = [18, 79]\nclass = Survived", fillcolor="#399de5c5"] ;
2 -> 3 ;
4 [label="Age <= 1.5\ngini = 0.428\nsamples = 38\nvalue = [18, 40]\nclass = Survived", fillcolor="#399de58c"] ;
3 -> 4 ;
5 [label="Has_Cabin_1 <= 0.5\ngini = 0.375\nsamples = 29\nvalue = [11, 33]\nclass = Survived", fillcolor="#399de5aa"] ;
4 -> 5 ;
6 [label="Age <= 0.5\ngini = 0.393\nsamples = 27\nvalue = [11, 30]\nclass = Survived", fillcolor="#399de5a1"] ;
5 -> 6 ;
7 [label="gini = 0.5\nsamples = 2\nvalue = [1, 1]\nclass = Died", fillcolor="#e5813900"] ;
6 -> 7 ;
8 [label="Pclass <= 2.5\ngini = 0.381\nsamples = 25\nvalue = [10, 29]\nclass = Survived", fillcolor="#399de5a7"] ;
6 -> 8 ;
9 [label="gini = 0.0\nsamples = 6\nvalue = [0, 9]\nclass = Survived", fillcolor="#399de5ff"] ;
8 -> 9 ;
10 [label="gini = 0.444\nsamples = 19\nvalue = [10, 20]\nclass = Survived", fillcolor="#399de57f"] ;
8 -> 10 ;
11 [label="gini = 0.0\nsamples = 2\nvalue = [0, 3]\nclass = Survived", fillcolor="#399de5ff"] ;
5 -> 11 ;
12 [label="Has_Cabin_1 <= 0.5\ngini = 0.5\nsamples = 9\nvalue = [7, 7]\nclass = Died", fillcolor="#e5813900"] ;
4 -> 12 ;
13 [label="Pclass <= 2.5\ngini = 0.5\nsamples = 7\nvalue = [6, 6]\nclass = Died", fillcolor="#e5813900"] ;
12 -> 13 ;
14 [label="Age <= 2.5\ngini = 0.469\nsamples = 3\nvalue = [3, 5]\nclass = Survived", fillcolor="#399de566"] ;
13 -> 14 ;
15 [label="gini = 0.5\nsamples = 2\nvalue = [3, 3]\nclass = Died", fillcolor="#e5813900"] ;
14 -> 15 ;
16 [label="gini = 0.0\nsamples = 1\nvalue = [0, 2]\nclass = Survived", fillcolor="#399de5ff"] ;
14 -> 16 ;
17 [label="gini = 0.375\nsamples = 4\nvalue = [3, 1]\nclass = Died", fillcolor="#e58139aa"] ;
13 -> 17 ;
18 [label="Age <= 2.5\ngini = 0.5\nsamples = 2\nvalue = [1, 1]\nclass = Died", fillcolor="#e5813900"] ;
12 -> 18 ;
19 [label="gini = 0.0\nsamples = 1\nvalue = [0, 1]\nclass = Survived", fillcolor="#399de5ff"] ;
18 -> 19 ;
20 [label="gini = 0.0\nsamples = 1\nvalue = [1, 0]\nclass = Died", fillcolor="#e58139ff"] ;
18 -> 20 ;
21 [label="gini = 0.0\nsamples = 23\nvalue = [0, 39]\nclass = Survived", fillcolor="#399de5ff"] ;
3 -> 21 ;
22 [label="Fare <= 0.5\ngini = 0.245\nsamples = 40\nvalue = [9, 54]\nclass = Survived", fillcolor="#399de5d4"] ;
2 -> 22 ;
23 [label="gini = 0.0\nsamples = 1\nvalue = [3, 0]\nclass = Died", fillcolor="#e58139ff"] ;
22 -> 23 ;
24 [label="Age <= 1.5\ngini = 0.18\nsamples = 39\nvalue = [6, 54]\nclass = Survived", fillcolor="#399de5e3"] ;
22 -> 24 ;
25 [label="Embarked <= 1.5\ngini = 0.278\nsamples = 21\nvalue = [5, 25]\nclass = Survived", fillcolor="#399de5cc"] ;
24 -> 25 ;
26 [label="Pclass <= 2.5\ngini = 0.42\nsamples = 7\nvalue = [3, 7]\nclass = Survived", fillcolor="#399de592"] ;
25 -> 26 ;
27 [label="gini = 0.0\nsamples = 4\nvalue = [0, 5]\nclass = Survived", fillcolor="#399de5ff"] ;
26 -> 27 ;
28 [label="Age <= 0.5\ngini = 0.48\nsamples = 3\nvalue = [3, 2]\nclass = Died", fillcolor="#e5813955"] ;
26 -> 28 ;
29 [label="gini = 0.0\nsamples = 1\nvalue = [0, 1]\nclass = Survived", fillcolor="#399de5ff"] ;
28 -> 29 ;
30 [label="Fare <= 1.5\ngini = 0.375\nsamples = 2\nvalue = [3, 1]\nclass = Died", fillcolor="#e58139aa"] ;
28 -> 30 ;
31 [label="gini = 0.0\nsamples = 1\nvalue = [0, 1]\nclass = Survived", fillcolor="#399de5ff"] ;
30 -> 31 ;
32 [label="gini = 0.0\nsamples = 1\nvalue = [3, 0]\nclass = Died", fillcolor="#e58139ff"] ;
30 -> 32 ;
33 [label="Age <= 0.5\ngini = 0.18\nsamples = 14\nvalue = [2, 18]\nclass = Survived", fillcolor="#399de5e3"] ;
25 -> 33 ;
34 [label="gini = 0.0\nsamples = 2\nvalue = [0, 2]\nclass = Survived", fillcolor="#399de5ff"] ;
33 -> 34 ;
35 [label="gini = 0.198\nsamples = 12\nvalue = [2, 16]\nclass = Survived", fillcolor="#399de5df"] ;
33 -> 35 ;
36 [label="Age <= 2.5\ngini = 0.064\nsamples = 18\nvalue = [1, 29]\nclass = Survived", fillcolor="#399de5f6"] ;
24 -> 36 ;
37 [label="Fare <= 1.5\ngini = 0.074\nsamples = 15\nvalue = [1, 25]\nclass = Survived", fillcolor="#399de5f5"] ;
36 -> 37 ;
38 [label="Embarked <= 1.5\ngini = 0.18\nsamples = 6\nvalue = [1, 9]\nclass = Survived", fillcolor="#399de5e3"] ;
37 -> 38 ;
39 [label="gini = 0.0\nsamples = 2\nvalue = [0, 4]\nclass = Survived", fillcolor="#399de5ff"] ;
38 -> 39 ;
40 [label="gini = 0.278\nsamples = 4\nvalue = [1, 5]\nclass = Survived", fillcolor="#399de5cc"] ;
38 -> 40 ;
41 [label="gini = 0.0\nsamples = 9\nvalue = [0, 16]\nclass = Survived", fillcolor="#399de5ff"] ;
37 -> 41 ;
42 [label="gini = 0.0\nsamples = 3\nvalue = [0, 4]\nclass = Survived", fillcolor="#399de5ff"] ;
36 -> 42 ;
43 [label="Has_Cabin_1 <= 0.5\ngini = 0.206\nsamples = 297\nvalue = [416, 55]\nclass = Died", fillcolor="#e58139dd"] ;
1 -> 43 ;
44 [label="Age <= 2.5\ngini = 0.149\nsamples = 255\nvalue = [364, 32]\nclass = Died", fillcolor="#e58139e9"] ;
43 -> 44 ;
45 [label="Pclass <= 1.5\ngini = 0.156\nsamples = 244\nvalue = [344, 32]\nclass = Died", fillcolor="#e58139e7"] ;
44 -> 45 ;
46 [label="Fare <= 2.5\ngini = 0.198\nsamples = 17\nvalue = [24, 3]\nclass = Died", fillcolor="#e58139df"] ;
45 -> 46 ;
47 [label="Age <= 1.5\ngini = 0.278\nsamples = 11\nvalue = [15, 3]\nclass = Died", fillcolor="#e58139cc"] ;
46 -> 47 ;
48 [label="Embarked <= 0.5\ngini = 0.444\nsamples = 3\nvalue = [4, 2]\nclass = Died", fillcolor="#e581397f"] ;
47 -> 48 ;
49 [label="gini = 0.0\nsamples = 1\nvalue = [0, 2]\nclass = Survived", fillcolor="#399de5ff"] ;
48 -> 49 ;
50 [label="gini = 0.0\nsamples = 2\nvalue = [4, 0]\nclass = Died", fillcolor="#e58139ff"] ;
48 -> 50 ;
51 [label="Embarked <= 0.5\ngini = 0.153\nsamples = 8\nvalue = [11, 1]\nclass = Died", fillcolor="#e58139e8"] ;
47 -> 51 ;
52 [label="gini = 0.245\nsamples = 5\nvalue = [6, 1]\nclass = Died", fillcolor="#e58139d4"] ;
51 -> 52 ;
53 [label="gini = 0.0\nsamples = 3\nvalue = [5, 0]\nclass = Died", fillcolor="#e58139ff"] ;
51 -> 53 ;
54 [label="gini = 0.0\nsamples = 6\nvalue = [9, 0]\nclass = Died", fillcolor="#e58139ff"] ;
46 -> 54 ;
55 [label="Fare <= 2.5\ngini = 0.152\nsamples = 227\nvalue = [320, 29]\nclass = Died", fillcolor="#e58139e8"] ;
45 -> 55 ;
56 [label="Embarked <= 1.5\ngini = 0.142\nsamples = 220\nvalue = [311, 26]\nclass = Died", fillcolor="#e58139ea"] ;
55 -> 56 ;
57 [label="Fare <= 0.5\ngini = 0.154\nsamples = 197\nvalue = [273, 25]\nclass = Died", fillcolor="#e58139e8"] ;
56 -> 57 ;
58 [label="Age <= 1.5\ngini = 0.346\nsamples = 6\nvalue = [7, 2]\nclass = Died", fillcolor="#e58139b6"] ;
57 -> 58 ;
59 [label="gini = 0.5\nsamples = 2\nvalue = [2, 2]\nclass = Died", fillcolor="#e5813900"] ;
58 -> 59 ;
60 [label="gini = 0.0\nsamples = 4\nvalue = [5, 0]\nclass = Died", fillcolor="#e58139ff"] ;
58 -> 60 ;
61 [label="Age <= 0.5\ngini = 0.147\nsamples = 191\nvalue = [266, 23]\nclass = Died", fillcolor="#e58139e9"] ;
57 -> 61 ;
62 [label="gini = 0.0\nsamples = 7\nvalue = [12, 0]\nclass = Died", fillcolor="#e58139ff"] ;
61 -> 62 ;
63 [label="Fare <= 1.5\ngini = 0.152\nsamples = 184\nvalue = [254, 23]\nclass = Died", fillcolor="#e58139e8"] ;
61 -> 63 ;
64 [label="Pclass <= 2.5\ngini = 0.155\nsamples = 172\nvalue = [238, 22]\nclass = Died", fillcolor="#e58139e7"] ;
63 -> 64 ;
65 [label="Age <= 1.5\ngini = 0.153\nsamples = 40\nvalue = [55, 5]\nclass = Died", fillcolor="#e58139e8"] ;
64 -> 65 ;
66 [label="Embarked <= 0.5\ngini = 0.115\nsamples = 32\nvalue = [46, 3]\nclass = Died", fillcolor="#e58139ee"] ;
65 -> 66 ;
67 [label="gini = 0.117\nsamples = 31\nvalue = [45, 3]\nclass = Died", fillcolor="#e58139ee"] ;
66 -> 67 ;
68 [label="gini = 0.0\nsamples = 1\nvalue = [1, 0]\nclass = Died", fillcolor="#e58139ff"] ;
66 -> 68 ;
69 [label="gini = 0.298\nsamples = 8\nvalue = [9, 2]\nclass = Died", fillcolor="#e58139c6"] ;
65 -> 69 ;
70 [label="Embarked <= 0.5\ngini = 0.156\nsamples = 132\nvalue = [183, 17]\nclass = Died", fillcolor="#e58139e7"] ;
64 -> 70 ;
71 [label="Age <= 1.5\ngini = 0.14\nsamples = 112\nvalue = [158, 13]\nclass = Died", fillcolor="#e58139ea"] ;
70 -> 71 ;
72 [label="gini = 0.143\nsamples = 81\nvalue = [119, 10]\nclass = Died", fillcolor="#e58139ea"] ;
71 -> 72 ;
73 [label="gini = 0.133\nsamples = 31\nvalue = [39, 3]\nclass = Died", fillcolor="#e58139eb"] ;
71 -> 73 ;
74 [label="Age <= 1.5\ngini = 0.238\nsamples = 20\nvalue = [25, 4]\nclass = Died", fillcolor="#e58139d6"] ;
70 -> 74 ;
75 [label="gini = 0.188\nsamples = 14\nvalue = [17, 2]\nclass = Died", fillcolor="#e58139e1"] ;
74 -> 75 ;
76 [label="gini = 0.32\nsamples = 6\nvalue = [8, 2]\nclass = Died", fillcolor="#e58139bf"] ;
74 -> 76 ;
77 [label="Age <= 1.5\ngini = 0.111\nsamples = 12\nvalue = [16, 1]\nclass = Died", fillcolor="#e58139ef"] ;
63 -> 77 ;
78 [label="Pclass <= 2.5\ngini = 0.198\nsamples = 6\nvalue = [8, 1]\nclass = Died", fillcolor="#e58139df"] ;
77 -> 78 ;
79 [label="gini = 0.0\nsamples = 2\nvalue = [4, 0]\nclass = Died", fillcolor="#e58139ff"] ;
78 -> 79 ;
80 [label="Embarked <= 0.5\ngini = 0.32\nsamples = 4\nvalue = [4, 1]\nclass = Died", fillcolor="#e58139bf"] ;
78 -> 80 ;
81 [label="gini = 0.0\nsamples = 2\nvalue = [2, 0]\nclass = Died", fillcolor="#e58139ff"] ;
80 -> 81 ;
82 [label="gini = 0.444\nsamples = 2\nvalue = [2, 1]\nclass = Died", fillcolor="#e581397f"] ;
80 -> 82 ;
83 [label="gini = 0.0\nsamples = 6\nvalue = [8, 0]\nclass = Died", fillcolor="#e58139ff"] ;
77 -> 83 ;
84 [label="Age <= 1.5\ngini = 0.05\nsamples = 23\nvalue = [38, 1]\nclass = Died", fillcolor="#e58139f8"] ;
56 -> 84 ;
85 [label="gini = 0.0\nsamples = 16\nvalue = [27, 0]\nclass = Died", fillcolor="#e58139ff"] ;
84 -> 85 ;
86 [label="Pclass <= 2.5\ngini = 0.153\nsamples = 7\nvalue = [11, 1]\nclass = Died", fillcolor="#e58139e8"] ;
84 -> 86 ;
87 [label="gini = 0.0\nsamples = 1\nvalue = [1, 0]\nclass = Died", fillcolor="#e58139ff"] ;
86 -> 87 ;
88 [label="gini = 0.165\nsamples = 6\nvalue = [10, 1]\nclass = Died", fillcolor="#e58139e6"] ;
86 -> 88 ;
89 [label="Pclass <= 2.5\ngini = 0.375\nsamples = 7\nvalue = [9, 3]\nclass = Died", fillcolor="#e58139aa"] ;
55 -> 89 ;
90 [label="gini = 0.0\nsamples = 4\nvalue = [8, 0]\nclass = Died", fillcolor="#e58139ff"] ;
89 -> 90 ;
91 [label="Age <= 0.5\ngini = 0.375\nsamples = 3\nvalue = [1, 3]\nclass = Survived", fillcolor="#399de5aa"] ;
89 -> 91 ;
92 [label="gini = 0.0\nsamples = 1\nvalue = [0, 1]\nclass = Survived", fillcolor="#399de5ff"] ;
91 -> 92 ;
93 [label="gini = 0.444\nsamples = 2\nvalue = [1, 2]\nclass = Survived", fillcolor="#399de57f"] ;
91 -> 93 ;
94 [label="gini = 0.0\nsamples = 11\nvalue = [20, 0]\nclass = Died", fillcolor="#e58139ff"] ;
44 -> 94 ;
95 [label="Embarked <= 0.5\ngini = 0.425\nsamples = 42\nvalue = [52, 23]\nclass = Died", fillcolor="#e581398e"] ;
43 -> 95 ;
96 [label="Age <= 1.5\ngini = 0.393\nsamples = 26\nvalue = [30, 11]\nclass = Died", fillcolor="#e58139a1"] ;
95 -> 96 ;
97 [label="Pclass <= 1.5\ngini = 0.18\nsamples = 8\nvalue = [9, 1]\nclass = Died", fillcolor="#e58139e3"] ;
96 -> 97 ;
98 [label="Fare <= 2.5\ngini = 0.278\nsamples = 5\nvalue = [5, 1]\nclass = Died", fillcolor="#e58139cc"] ;
97 -> 98 ;
99 [label="Fare <= 1.0\ngini = 0.375\nsamples = 4\nvalue = [3, 1]\nclass = Died", fillcolor="#e58139aa"] ;
98 -> 99 ;
100 [label="gini = 0.0\nsamples = 1\nvalue = [1, 0]\nclass = Died", fillcolor="#e58139ff"] ;
99 -> 100 ;
101 [label="gini = 0.444\nsamples = 3\nvalue = [2, 1]\nclass = Died", fillcolor="#e581397f"] ;
99 -> 101 ;
102 [label="gini = 0.0\nsamples = 1\nvalue = [2, 0]\nclass = Died", fillcolor="#e58139ff"] ;
98 -> 102 ;
103 [label="gini = 0.0\nsamples = 3\nvalue = [4, 0]\nclass = Died", fillcolor="#e58139ff"] ;
97 -> 103 ;
104 [label="Fare <= 2.5\ngini = 0.437\nsamples = 18\nvalue = [21, 10]\nclass = Died", fillcolor="#e5813986"] ;
96 -> 104 ;
105 [label="Age <= 2.5\ngini = 0.496\nsamples = 11\nvalue = [12, 10]\nclass = Died", fillcolor="#e581392a"] ;
104 -> 105 ;
106 [label="Pclass <= 2.0\ngini = 0.48\nsamples = 6\nvalue = [4, 6]\nclass = Survived", fillcolor="#399de555"] ;
105 -> 106 ;
107 [label="Fare <= 1.0\ngini = 0.444\nsamples = 5\nvalue = [3, 6]\nclass = Survived", fillcolor="#399de57f"] ;
106 -> 107 ;
108 [label="gini = 0.0\nsamples = 1\nvalue = [2, 0]\nclass = Died", fillcolor="#e58139ff"] ;
107 -> 108 ;
109 [label="gini = 0.245\nsamples = 4\nvalue = [1, 6]\nclass = Survived", fillcolor="#399de5d4"] ;
107 -> 109 ;
110 [label="gini = 0.0\nsamples = 1\nvalue = [1, 0]\nclass = Died", fillcolor="#e58139ff"] ;
106 -> 110 ;
111 [label="Fare <= 1.0\ngini = 0.444\nsamples = 5\nvalue = [8, 4]\nclass = Died", fillcolor="#e581397f"] ;
105 -> 111 ;
112 [label="gini = 0.0\nsamples = 1\nvalue = [2, 0]\nclass = Died", fillcolor="#e58139ff"] ;
111 -> 112 ;
113 [label="gini = 0.48\nsamples = 4\nvalue = [6, 4]\nclass = Died", fillcolor="#e5813955"] ;
111 -> 113 ;
114 [label="gini = 0.0\nsamples = 7\nvalue = [9, 0]\nclass = Died", fillcolor="#e58139ff"] ;
104 -> 114 ;
115 [label="Fare <= 2.5\ngini = 0.457\nsamples = 16\nvalue = [22, 12]\nclass = Died", fillcolor="#e5813974"] ;
95 -> 115 ;
116 [label="Pclass <= 1.5\ngini = 0.32\nsamples = 9\nvalue = [12, 3]\nclass = Died", fillcolor="#e58139bf"] ;
115 -> 116 ;
117 [label="Age <= 1.5\ngini = 0.42\nsamples = 6\nvalue = [7, 3]\nclass = Died", fillcolor="#e5813992"] ;
116 -> 117 ;
118 [label="gini = 0.48\nsamples = 3\nvalue = [2, 3]\nclass = Survived", fillcolor="#399de555"] ;
117 -> 118 ;
119 [label="gini = 0.0\nsamples = 3\nvalue = [5, 0]\nclass = Died", fillcolor="#e58139ff"] ;
117 -> 119 ;
120 [label="gini = 0.0\nsamples = 3\nvalue = [5, 0]\nclass = Died", fillcolor="#e58139ff"] ;
116 -> 120 ;
121 [label="Age <= 1.5\ngini = 0.499\nsamples = 7\nvalue = [10, 9]\nclass = Died", fillcolor="#e5813919"] ;
115 -> 121 ;
122 [label="gini = 0.0\nsamples = 1\nvalue = [4, 0]\nclass = Died", fillcolor="#e58139ff"] ;
121 -> 122 ;
123 [label="Age <= 3.5\ngini = 0.48\nsamples = 6\nvalue = [6, 9]\nclass = Survived", fillcolor="#399de555"] ;
121 -> 123 ;
124 [label="Age <= 2.5\ngini = 0.426\nsamples = 5\nvalue = [4, 9]\nclass = Survived", fillcolor="#399de58e"] ;
123 -> 124 ;
125 [label="gini = 0.494\nsamples = 4\nvalue = [4, 5]\nclass = Survived", fillcolor="#399de533"] ;
124 -> 125 ;
126 [label="gini = 0.0\nsamples = 1\nvalue = [0, 4]\nclass = Survived", fillcolor="#399de5ff"] ;
124 -> 126 ;
127 [label="gini = 0.0\nsamples = 1\nvalue = [2, 0]\nclass = Died", fillcolor="#e58139ff"] ;
123 -> 127 ;
128 [label="Sex_0 <= 0.5\ngini = 0.499\nsamples = 265\nvalue = [219, 197]\nclass = Died", fillcolor="#e581391a"] ;
0 -> 128 [labeldistance=2.5, labelangle=-45, headlabel="False"] ;
129 [label="Has_Cabin_1 <= 0.5\ngini = 0.26\nsamples = 125\nvalue = [182, 33]\nclass = Died", fillcolor="#e58139d1"] ;
128 -> 129 ;
130 [label="Fare <= 1.5\ngini = 0.145\nsamples = 91\nvalue = [140, 12]\nclass = Died", fillcolor="#e58139e9"] ;
129 -> 130 ;
131 [label="Embarked <= 1.5\ngini = 0.337\nsamples = 18\nvalue = [22, 6]\nclass = Died", fillcolor="#e58139b9"] ;
130 -> 131 ;
132 [label="Embarked <= 0.5\ngini = 0.365\nsamples = 16\nvalue = [19, 6]\nclass = Died", fillcolor="#e58139ae"] ;
131 -> 132 ;
133 [label="FamilySize <= 2.5\ngini = 0.298\nsamples = 13\nvalue = [18, 4]\nclass = Died", fillcolor="#e58139c6"] ;
132 -> 133 ;
134 [label="Pclass <= 2.5\ngini = 0.375\nsamples = 8\nvalue = [9, 3]\nclass = Died", fillcolor="#e58139aa"] ;
133 -> 134 ;
135 [label="gini = 0.0\nsamples = 1\nvalue = [1, 0]\nclass = Died", fillcolor="#e58139ff"] ;
134 -> 135 ;
136 [label="Fare <= 0.5\ngini = 0.397\nsamples = 7\nvalue = [8, 3]\nclass = Died", fillcolor="#e581399f"] ;
134 -> 136 ;
137 [label="gini = 0.0\nsamples = 1\nvalue = [1, 0]\nclass = Died", fillcolor="#e58139ff"] ;
136 -> 137 ;
138 [label="gini = 0.42\nsamples = 6\nvalue = [7, 3]\nclass = Died", fillcolor="#e5813992"] ;
136 -> 138 ;
139 [label="Age <= 0.5\ngini = 0.18\nsamples = 5\nvalue = [9, 1]\nclass = Died", fillcolor="#e58139e3"] ;
133 -> 139 ;
140 [label="gini = 0.278\nsamples = 2\nvalue = [5, 1]\nclass = Died", fillcolor="#e58139cc"] ;
139 -> 140 ;
141 [label="gini = 0.0\nsamples = 3\nvalue = [4, 0]\nclass = Died", fillcolor="#e58139ff"] ;
139 -> 141 ;
142 [label="FamilySize <= 2.5\ngini = 0.444\nsamples = 3\nvalue = [1, 2]\nclass = Survived", fillcolor="#399de57f"] ;
132 -> 142 ;
143 [label="gini = 0.0\nsamples = 2\nvalue = [0, 2]\nclass = Survived", fillcolor="#399de5ff"] ;
142 -> 143 ;
144 [label="gini = 0.0\nsamples = 1\nvalue = [1, 0]\nclass = Died", fillcolor="#e58139ff"] ;
142 -> 144 ;
145 [label="gini = 0.0\nsamples = 2\nvalue = [3, 0]\nclass = Died", fillcolor="#e58139ff"] ;
131 -> 145 ;
146 [label="Pclass <= 1.5\ngini = 0.092\nsamples = 73\nvalue = [118, 6]\nclass = Died", fillcolor="#e58139f2"] ;
130 -> 146 ;
147 [label="gini = 0.0\nsamples = 1\nvalue = [2, 0]\nclass = Died", fillcolor="#e58139ff"] ;
146 -> 147 ;
148 [label="Age <= 0.5\ngini = 0.094\nsamples = 72\nvalue = [116, 6]\nclass = Died", fillcolor="#e58139f2"] ;
146 -> 148 ;
149 [label="Pclass <= 2.5\ngini = 0.311\nsamples = 17\nvalue = [21, 5]\nclass = Died", fillcolor="#e58139c2"] ;
148 -> 149 ;
150 [label="Embarked <= 0.5\ngini = 0.5\nsamples = 2\nvalue = [1, 1]\nclass = Died", fillcolor="#e5813900"] ;
149 -> 150 ;
151 [label="gini = 0.0\nsamples = 1\nvalue = [1, 0]\nclass = Died", fillcolor="#e58139ff"] ;
150 -> 151 ;
152 [label="gini = 0.0\nsamples = 1\nvalue = [0, 1]\nclass = Survived", fillcolor="#399de5ff"] ;
150 -> 152 ;
153 [label="Fare <= 2.5\ngini = 0.278\nsamples = 15\nvalue = [20, 4]\nclass = Died", fillcolor="#e58139cc"] ;
149 -> 153 ;
154 [label="Embarked <= 0.5\ngini = 0.32\nsamples = 12\nvalue = [16, 4]\nclass = Died", fillcolor="#e58139bf"] ;
153 -> 154 ;
155 [label="FamilySize <= 4.5\ngini = 0.408\nsamples = 9\nvalue = [10, 4]\nclass = Died", fillcolor="#e5813999"] ;
154 -> 155 ;
156 [label="FamilySize <= 3.5\ngini = 0.48\nsamples = 7\nvalue = [6, 4]\nclass = Died", fillcolor="#e5813955"] ;
155 -> 156 ;
157 [label="gini = 0.49\nsamples = 5\nvalue = [4, 3]\nclass = Died", fillcolor="#e5813940"] ;
156 -> 157 ;
158 [label="gini = 0.444\nsamples = 2\nvalue = [2, 1]\nclass = Died", fillcolor="#e581397f"] ;
156 -> 158 ;
159 [label="gini = 0.0\nsamples = 2\nvalue = [4, 0]\nclass = Died", fillcolor="#e58139ff"] ;
155 -> 159 ;
160 [label="gini = 0.0\nsamples = 3\nvalue = [6, 0]\nclass = Died", fillcolor="#e58139ff"] ;
154 -> 160 ;
161 [label="gini = 0.0\nsamples = 3\nvalue = [4, 0]\nclass = Died", fillcolor="#e58139ff"] ;
153 -> 161 ;
162 [label="Pclass <= 2.5\ngini = 0.021\nsamples = 55\nvalue = [95, 1]\nclass = Died", fillcolor="#e58139fc"] ;
148 -> 162 ;
163 [label="Fare <= 2.5\ngini = 0.05\nsamples = 26\nvalue = [38, 1]\nclass = Died", fillcolor="#e58139f8"] ;
162 -> 163 ;
164 [label="Embarked <= 0.5\ngini = 0.077\nsamples = 15\nvalue = [24, 1]\nclass = Died", fillcolor="#e58139f4"] ;
163 -> 164 ;
165 [label="Age <= 1.5\ngini = 0.08\nsamples = 14\nvalue = [23, 1]\nclass = Died", fillcolor="#e58139f4"] ;
164 -> 165 ;
166 [label="gini = 0.245\nsamples = 5\nvalue = [6, 1]\nclass = Died", fillcolor="#e58139d4"] ;
165 -> 166 ;
167 [label="gini = 0.0\nsamples = 9\nvalue = [17, 0]\nclass = Died", fillcolor="#e58139ff"] ;
165 -> 167 ;
168 [label="gini = 0.0\nsamples = 1\nvalue = [1, 0]\nclass = Died", fillcolor="#e58139ff"] ;
164 -> 168 ;
169 [label="gini = 0.0\nsamples = 11\nvalue = [14, 0]\nclass = Died", fillcolor="#e58139ff"] ;
163 -> 169 ;
170 [label="gini = 0.0\nsamples = 29\nvalue = [57, 0]\nclass = Died", fillcolor="#e58139ff"] ;
162 -> 170 ;
171 [label="Fare <= 2.5\ngini = 0.444\nsamples = 34\nvalue = [42, 21]\nclass = Died", fillcolor="#e581397f"] ;
129 -> 171 ;
172 [label="gini = 0.0\nsamples = 3\nvalue = [0, 6]\nclass = Survived", fillcolor="#399de5ff"] ;
171 -> 172 ;
173 [label="Pclass <= 1.5\ngini = 0.388\nsamples = 31\nvalue = [42, 15]\nclass = Died", fillcolor="#e58139a4"] ;
171 -> 173 ;
174 [label="Embarked <= 0.5\ngini = 0.346\nsamples = 30\nvalue = [42, 12]\nclass = Died", fillcolor="#e58139b6"] ;
173 -> 174 ;
175 [label="Age <= 0.5\ngini = 0.191\nsamples = 16\nvalue = [25, 3]\nclass = Died", fillcolor="#e58139e0"] ;
174 -> 175 ;
176 [label="gini = 0.0\nsamples = 1\nvalue = [0, 1]\nclass = Survived", fillcolor="#399de5ff"] ;
175 -> 176 ;
177 [label="FamilySize <= 2.5\ngini = 0.137\nsamples = 15\nvalue = [25, 2]\nclass = Died", fillcolor="#e58139eb"] ;
175 -> 177 ;
178 [label="Age <= 1.5\ngini = 0.153\nsamples = 13\nvalue = [22, 2]\nclass = Died", fillcolor="#e58139e8"] ;
177 -> 178 ;
179 [label="gini = 0.278\nsamples = 7\nvalue = [10, 2]\nclass = Died", fillcolor="#e58139cc"] ;
178 -> 179 ;
180 [label="gini = 0.0\nsamples = 6\nvalue = [12, 0]\nclass = Died", fillcolor="#e58139ff"] ;
178 -> 180 ;
181 [label="gini = 0.0\nsamples = 2\nvalue = [3, 0]\nclass = Died", fillcolor="#e58139ff"] ;
177 -> 181 ;
182 [label="Age <= 0.5\ngini = 0.453\nsamples = 14\nvalue = [17, 9]\nclass = Died", fillcolor="#e5813978"] ;
174 -> 182 ;
183 [label="gini = 0.0\nsamples = 1\nvalue = [3, 0]\nclass = Died", fillcolor="#e58139ff"] ;
182 -> 183 ;
184 [label="Age <= 1.5\ngini = 0.476\nsamples = 13\nvalue = [14, 9]\nclass = Died", fillcolor="#e581395b"] ;
182 -> 184 ;
185 [label="gini = 0.48\nsamples = 4\nvalue = [4, 6]\nclass = Survived", fillcolor="#399de555"] ;
184 -> 185 ;
186 [label="Age <= 2.5\ngini = 0.355\nsamples = 9\nvalue = [10, 3]\nclass = Died", fillcolor="#e58139b3"] ;
184 -> 186 ;
187 [label="gini = 0.0\nsamples = 3\nvalue = [4, 0]\nclass = Died", fillcolor="#e58139ff"] ;
186 -> 187 ;
188 [label="FamilySize <= 2.5\ngini = 0.444\nsamples = 6\nvalue = [6, 3]\nclass = Died", fillcolor="#e581397f"] ;
186 -> 188 ;
189 [label="gini = 0.5\nsamples = 3\nvalue = [2, 2]\nclass = Died", fillcolor="#e5813900"] ;
188 -> 189 ;
190 [label="gini = 0.32\nsamples = 3\nvalue = [4, 1]\nclass = Died", fillcolor="#e58139bf"] ;
188 -> 190 ;
191 [label="gini = 0.0\nsamples = 1\nvalue = [0, 3]\nclass = Survived", fillcolor="#399de5ff"] ;
173 -> 191 ;
192 [label="FamilySize <= 4.5\ngini = 0.3\nsamples = 140\nvalue = [37, 164]\nclass = Survived", fillcolor="#399de5c5"] ;
128 -> 192 ;
193 [label="Pclass <= 2.5\ngini = 0.212\nsamples = 117\nvalue = [20, 146]\nclass = Survived", fillcolor="#399de5dc"] ;
192 -> 193 ;
194 [label="Fare <= 2.5\ngini = 0.018\nsamples = 78\nvalue = [1, 112]\nclass = Survived", fillcolor="#399de5fd"] ;
193 -> 194 ;
195 [label="FamilySize <= 2.5\ngini = 0.057\nsamples = 23\nvalue = [1, 33]\nclass = Survived", fillcolor="#399de5f7"] ;
194 -> 195 ;
196 [label="Embarked <= 0.5\ngini = 0.111\nsamples = 12\nvalue = [1, 16]\nclass = Survived", fillcolor="#399de5ef"] ;
195 -> 196 ;
197 [label="Age <= 1.5\ngini = 0.142\nsamples = 9\nvalue = [1, 12]\nclass = Survived", fillcolor="#399de5ea"] ;
196 -> 197 ;
198 [label="Age <= 0.5\ngini = 0.18\nsamples = 7\nvalue = [1, 9]\nclass = Survived", fillcolor="#399de5e3"] ;
197 -> 198 ;
199 [label="gini = 0.0\nsamples = 1\nvalue = [0, 1]\nclass = Survived", fillcolor="#399de5ff"] ;
198 -> 199 ;
200 [label="gini = 0.198\nsamples = 6\nvalue = [1, 8]\nclass = Survived", fillcolor="#399de5df"] ;
198 -> 200 ;
201 [label="gini = 0.0\nsamples = 2\nvalue = [0, 3]\nclass = Survived", fillcolor="#399de5ff"] ;
197 -> 201 ;
202 [label="gini = 0.0\nsamples = 3\nvalue = [0, 4]\nclass = Survived", fillcolor="#399de5ff"] ;
196 -> 202 ;
203 [label="gini = 0.0\nsamples = 11\nvalue = [0, 17]\nclass = Survived", fillcolor="#399de5ff"] ;
195 -> 203 ;
204 [label="gini = 0.0\nsamples = 55\nvalue = [0, 79]\nclass = Survived", fillcolor="#399de5ff"] ;
194 -> 204 ;
205 [label="Has_Cabin_0 <= 0.5\ngini = 0.46\nsamples = 39\nvalue = [19, 34]\nclass = Survived", fillcolor="#399de570"] ;
193 -> 205 ;
206 [label="Age <= 0.5\ngini = 0.5\nsamples = 3\nvalue = [2, 2]\nclass = Died", fillcolor="#e5813900"] ;
205 -> 206 ;
207 [label="gini = 0.0\nsamples = 1\nvalue = [1, 0]\nclass = Died", fillcolor="#e58139ff"] ;
206 -> 207 ;
208 [label="FamilySize <= 2.5\ngini = 0.444\nsamples = 2\nvalue = [1, 2]\nclass = Survived", fillcolor="#399de57f"] ;
206 -> 208 ;
209 [label="gini = 0.0\nsamples = 1\nvalue = [0, 2]\nclass = Survived", fillcolor="#399de5ff"] ;
208 -> 209 ;
210 [label="gini = 0.0\nsamples = 1\nvalue = [1, 0]\nclass = Died", fillcolor="#e58139ff"] ;
208 -> 210 ;
211 [label="Fare <= 1.5\ngini = 0.453\nsamples = 36\nvalue = [17, 32]\nclass = Survived", fillcolor="#399de578"] ;
205 -> 211 ;
212 [label="Age <= 1.5\ngini = 0.219\nsamples = 11\nvalue = [2, 14]\nclass = Survived", fillcolor="#399de5db"] ;
211 -> 212 ;
213 [label="Embarked <= 1.5\ngini = 0.165\nsamples = 9\nvalue = [1, 10]\nclass = Survived", fillcolor="#399de5e6"] ;
212 -> 213 ;
214 [label="gini = 0.0\nsamples = 8\nvalue = [0, 10]\nclass = Survived", fillcolor="#399de5ff"] ;
213 -> 214 ;
215 [label="gini = 0.0\nsamples = 1\nvalue = [1, 0]\nclass = Died", fillcolor="#e58139ff"] ;
213 -> 215 ;
216 [label="FamilySize <= 2.5\ngini = 0.32\nsamples = 2\nvalue = [1, 4]\nclass = Survived", fillcolor="#399de5bf"] ;
212 -> 216 ;
217 [label="gini = 0.0\nsamples = 1\nvalue = [1, 0]\nclass = Died", fillcolor="#e58139ff"] ;
216 -> 217 ;
218 [label="gini = 0.0\nsamples = 1\nvalue = [0, 4]\nclass = Survived", fillcolor="#399de5ff"] ;
216 -> 218 ;
219 [label="Embarked <= 0.5\ngini = 0.496\nsamples = 25\nvalue = [15, 18]\nclass = Survived", fillcolor="#399de52a"] ;
211 -> 219 ;
220 [label="FamilySize <= 3.5\ngini = 0.475\nsamples = 14\nvalue = [7, 11]\nclass = Survived", fillcolor="#399de55d"] ;
219 -> 220 ;
221 [label="FamilySize <= 2.5\ngini = 0.444\nsamples = 12\nvalue = [5, 10]\nclass = Survived", fillcolor="#399de57f"] ;
220 -> 221 ;
222 [label="Age <= 1.5\ngini = 0.408\nsamples = 6\nvalue = [2, 5]\nclass = Survived", fillcolor="#399de599"] ;
221 -> 222 ;
223 [label="gini = 0.444\nsamples = 3\nvalue = [1, 2]\nclass = Survived", fillcolor="#399de57f"] ;
222 -> 223 ;
224 [label="gini = 0.375\nsamples = 3\nvalue = [1, 3]\nclass = Survived", fillcolor="#399de5aa"] ;
222 -> 224 ;
225 [label="Age <= 0.5\ngini = 0.469\nsamples = 6\nvalue = [3, 5]\nclass = Survived", fillcolor="#399de566"] ;
221 -> 225 ;
226 [label="gini = 0.0\nsamples = 1\nvalue = [1, 0]\nclass = Died", fillcolor="#e58139ff"] ;
225 -> 226 ;
227 [label="Age <= 1.5\ngini = 0.408\nsamples = 5\nvalue = [2, 5]\nclass = Survived", fillcolor="#399de599"] ;
225 -> 227 ;
228 [label="gini = 0.444\nsamples = 4\nvalue = [2, 4]\nclass = Survived", fillcolor="#399de57f"] ;
227 -> 228 ;
229 [label="gini = 0.0\nsamples = 1\nvalue = [0, 1]\nclass = Survived", fillcolor="#399de5ff"] ;
227 -> 229 ;
230 [label="gini = 0.444\nsamples = 2\nvalue = [2, 1]\nclass = Died", fillcolor="#e581397f"] ;
220 -> 230 ;
231 [label="Age <= 1.5\ngini = 0.498\nsamples = 11\nvalue = [8, 7]\nclass = Died", fillcolor="#e5813920"] ;
219 -> 231 ;
232 [label="FamilySize <= 2.5\ngini = 0.486\nsamples = 9\nvalue = [5, 7]\nclass = Survived", fillcolor="#399de549"] ;
231 -> 232 ;
233 [label="gini = 0.0\nsamples = 2\nvalue = [2, 0]\nclass = Died", fillcolor="#e58139ff"] ;
232 -> 233 ;
234 [label="Age <= 0.5\ngini = 0.42\nsamples = 7\nvalue = [3, 7]\nclass = Survived", fillcolor="#399de592"] ;
232 -> 234 ;
235 [label="FamilySize <= 3.5\ngini = 0.48\nsamples = 3\nvalue = [2, 3]\nclass = Survived", fillcolor="#399de555"] ;
234 -> 235 ;
236 [label="gini = 0.444\nsamples = 2\nvalue = [2, 1]\nclass = Died", fillcolor="#e581397f"] ;
235 -> 236 ;
237 [label="gini = 0.0\nsamples = 1\nvalue = [0, 2]\nclass = Survived", fillcolor="#399de5ff"] ;
235 -> 237 ;
238 [label="Embarked <= 1.5\ngini = 0.32\nsamples = 4\nvalue = [1, 4]\nclass = Survived", fillcolor="#399de5bf"] ;
234 -> 238 ;
239 [label="gini = 0.0\nsamples = 2\nvalue = [0, 3]\nclass = Survived", fillcolor="#399de5ff"] ;
238 -> 239 ;
240 [label="gini = 0.5\nsamples = 2\nvalue = [1, 1]\nclass = Died", fillcolor="#e5813900"] ;
238 -> 240 ;
241 [label="gini = 0.0\nsamples = 2\nvalue = [3, 0]\nclass = Died", fillcolor="#e58139ff"] ;
231 -> 241 ;
242 [label="Has_Cabin_0 <= 0.5\ngini = 0.5\nsamples = 23\nvalue = [17, 18]\nclass = Survived", fillcolor="#399de50e"] ;
192 -> 242 ;
243 [label="gini = 0.0\nsamples = 4\nvalue = [0, 6]\nclass = Survived", fillcolor="#399de5ff"] ;
242 -> 243 ;
244 [label="FamilySize <= 6.5\ngini = 0.485\nsamples = 19\nvalue = [17, 12]\nclass = Died", fillcolor="#e581394b"] ;
242 -> 244 ;
245 [label="Fare <= 2.5\ngini = 0.337\nsamples = 10\nvalue = [11, 3]\nclass = Died", fillcolor="#e58139b9"] ;
244 -> 245 ;
246 [label="Age <= 1.5\ngini = 0.444\nsamples = 6\nvalue = [6, 3]\nclass = Died", fillcolor="#e581397f"] ;
245 -> 246 ;
247 [label="gini = 0.0\nsamples = 3\nvalue = [5, 0]\nclass = Died", fillcolor="#e58139ff"] ;
246 -> 247 ;
248 [label="Age <= 2.5\ngini = 0.375\nsamples = 3\nvalue = [1, 3]\nclass = Survived", fillcolor="#399de5aa"] ;
246 -> 248 ;
249 [label="FamilySize <= 5.5\ngini = 0.5\nsamples = 2\nvalue = [1, 1]\nclass = Died", fillcolor="#e5813900"] ;
248 -> 249 ;
250 [label="gini = 0.0\nsamples = 1\nvalue = [0, 1]\nclass = Survived", fillcolor="#399de5ff"] ;
249 -> 250 ;
251 [label="gini = 0.0\nsamples = 1\nvalue = [1, 0]\nclass = Died", fillcolor="#e58139ff"] ;
249 -> 251 ;
252 [label="gini = 0.0\nsamples = 1\nvalue = [0, 2]\nclass = Survived", fillcolor="#399de5ff"] ;
248 -> 252 ;
253 [label="gini = 0.0\nsamples = 4\nvalue = [5, 0]\nclass = Died", fillcolor="#e58139ff"] ;
245 -> 253 ;
254 [label="Age <= 0.5\ngini = 0.48\nsamples = 9\nvalue = [6, 9]\nclass = Survived", fillcolor="#399de555"] ;
244 -> 254 ;
255 [label="gini = 0.0\nsamples = 3\nvalue = [4, 0]\nclass = Died", fillcolor="#e58139ff"] ;
254 -> 255 ;
256 [label="FamilySize <= 9.0\ngini = 0.298\nsamples = 6\nvalue = [2, 9]\nclass = Survived", fillcolor="#399de5c6"] ;
254 -> 256 ;
257 [label="gini = 0.0\nsamples = 2\nvalue = [0, 5]\nclass = Survived", fillcolor="#399de5ff"] ;
256 -> 257 ;
258 [label="Age <= 1.5\ngini = 0.444\nsamples = 4\nvalue = [2, 4]\nclass = Survived", fillcolor="#399de57f"] ;
256 -> 258 ;
259 [label="gini = 0.444\nsamples = 2\nvalue = [1, 2]\nclass = Survived", fillcolor="#399de57f"] ;
258 -> 259 ;
260 [label="gini = 0.444\nsamples = 2\nvalue = [1, 2]\nclass = Survived", fillcolor="#399de57f"] ;
258 -> 260 ;
}