digraph Tree {
node [shape=box, style="filled, rounded", color="black", fontname=helvetica] ;
edge [fontname=helvetica] ;
0 [label="IsAlone_0 <= 0.5\ngini = 0.468\nsamples = 642\nvalue = [656, 391]\nclass = Died", fillcolor="#e5813967"] ;
1 [label="Has_Cabin_1 <= 0.5\ngini = 0.392\nsamples = 384\nvalue = [448, 164]\nclass = Died", fillcolor="#e58139a2"] ;
0 -> 1 [labeldistance=2.5, labelangle=45, headlabel="True"] ;
2 [label="Age <= 0.5\ngini = 0.359\nsamples = 319\nvalue = [396, 121]\nclass = Died", fillcolor="#e58139b1"] ;
1 -> 2 ;
3 [label="Pclass <= 1.5\ngini = 0.499\nsamples = 19\nvalue = [15, 16]\nclass = Survived", fillcolor="#399de510"] ;
2 -> 3 ;
4 [label="gini = 0.0\nsamples = 1\nvalue = [0, 3]\nclass = Survived", fillcolor="#399de5ff"] ;
3 -> 4 ;
5 [label="Sex_0 <= 0.5\ngini = 0.497\nsamples = 18\nvalue = [15, 13]\nclass = Died", fillcolor="#e5813922"] ;
3 -> 5 ;
6 [label="gini = 0.0\nsamples = 9\nvalue = [13, 0]\nclass = Died", fillcolor="#e58139ff"] ;
5 -> 6 ;
7 [label="Fare <= 1.5\ngini = 0.231\nsamples = 9\nvalue = [2, 13]\nclass = Survived", fillcolor="#399de5d8"] ;
5 -> 7 ;
8 [label="Embarked <= 0.5\ngini = 0.26\nsamples = 7\nvalue = [2, 11]\nclass = Survived", fillcolor="#399de5d1"] ;
7 -> 8 ;
9 [label="gini = 0.0\nsamples = 1\nvalue = [2, 0]\nclass = Died", fillcolor="#e58139ff"] ;
8 -> 9 ;
10 [label="gini = 0.0\nsamples = 6\nvalue = [0, 11]\nclass = Survived", fillcolor="#399de5ff"] ;
8 -> 10 ;
11 [label="gini = 0.0\nsamples = 2\nvalue = [0, 2]\nclass = Survived", fillcolor="#399de5ff"] ;
7 -> 11 ;
12 [label="Sex_0 <= 0.5\ngini = 0.339\nsamples = 300\nvalue = [381, 105]\nclass = Died", fillcolor="#e58139b9"] ;
2 -> 12 ;
13 [label="Fare <= 0.5\ngini = 0.124\nsamples = 240\nvalue = [364, 26]\nclass = Died", fillcolor="#e58139ed"] ;
12 -> 13 ;
14 [label="Pclass <= 2.5\ngini = 0.291\nsamples = 10\nvalue = [14, 3]\nclass = Died", fillcolor="#e58139c8"] ;
13 -> 14 ;
15 [label="gini = 0.0\nsamples = 4\nvalue = [6, 0]\nclass = Died", fillcolor="#e58139ff"] ;
14 -> 15 ;
16 [label="Embarked <= 1.0\ngini = 0.397\nsamples = 6\nvalue = [8, 3]\nclass = Died", fillcolor="#e581399f"] ;
14 -> 16 ;
17 [label="Age <= 2.0\ngini = 0.5\nsamples = 3\nvalue = [3, 3]\nclass = Died", fillcolor="#e5813900"] ;
16 -> 17 ;
18 [label="gini = 0.375\nsamples = 2\nvalue = [1, 3]\nclass = Survived", fillcolor="#399de5aa"] ;
17 -> 18 ;
19 [label="gini = 0.0\nsamples = 1\nvalue = [2, 0]\nclass = Died", fillcolor="#e58139ff"] ;
17 -> 19 ;
20 [label="gini = 0.0\nsamples = 3\nvalue = [5, 0]\nclass = Died", fillcolor="#e58139ff"] ;
16 -> 20 ;
21 [label="Embarked <= 0.5\ngini = 0.116\nsamples = 230\nvalue = [350, 23]\nclass = Died", fillcolor="#e58139ee"] ;
13 -> 21 ;
22 [label="Fare <= 2.5\ngini = 0.122\nsamples = 175\nvalue = [272, 19]\nclass = Died", fillcolor="#e58139ed"] ;
21 -> 22 ;
23 [label="Fare <= 1.5\ngini = 0.105\nsamples = 164\nvalue = [255, 15]\nclass = Died", fillcolor="#e58139f0"] ;
22 -> 23 ;
24 [label="Pclass <= 2.5\ngini = 0.094\nsamples = 146\nvalue = [230, 12]\nclass = Died", fillcolor="#e58139f2"] ;
23 -> 24 ;
25 [label="Age <= 2.5\ngini = 0.161\nsamples = 40\nvalue = [62, 6]\nclass = Died", fillcolor="#e58139e6"] ;
24 -> 25 ;
26 [label="Age <= 1.5\ngini = 0.177\nsamples = 37\nvalue = [55, 6]\nclass = Died", fillcolor="#e58139e3"] ;
25 -> 26 ;
27 [label="gini = 0.13\nsamples = 29\nvalue = [40, 3]\nclass = Died", fillcolor="#e58139ec"] ;
26 -> 27 ;
28 [label="gini = 0.278\nsamples = 8\nvalue = [15, 3]\nclass = Died", fillcolor="#e58139cc"] ;
26 -> 28 ;
29 [label="gini = 0.0\nsamples = 3\nvalue = [7, 0]\nclass = Died", fillcolor="#e58139ff"] ;
25 -> 29 ;
30 [label="Age <= 2.5\ngini = 0.067\nsamples = 106\nvalue = [168, 6]\nclass = Died", fillcolor="#e58139f6"] ;
24 -> 30 ;
31 [label="Age <= 1.5\ngini = 0.07\nsamples = 102\nvalue = [160, 6]\nclass = Died", fillcolor="#e58139f5"] ;
30 -> 31 ;
32 [label="gini = 0.065\nsamples = 76\nvalue = [115, 4]\nclass = Died", fillcolor="#e58139f6"] ;
31 -> 32 ;
33 [label="gini = 0.081\nsamples = 26\nvalue = [45, 2]\nclass = Died", fillcolor="#e58139f4"] ;
31 -> 33 ;
34 [label="gini = 0.0\nsamples = 4\nvalue = [8, 0]\nclass = Died", fillcolor="#e58139ff"] ;
30 -> 34 ;
35 [label="Pclass <= 1.5\ngini = 0.191\nsamples = 18\nvalue = [25, 3]\nclass = Died", fillcolor="#e58139e0"] ;
23 -> 35 ;
36 [label="Age <= 2.5\ngini = 0.32\nsamples = 9\nvalue = [12, 3]\nclass = Died", fillcolor="#e58139bf"] ;
35 -> 36 ;
37 [label="Age <= 1.5\ngini = 0.444\nsamples = 5\nvalue = [6, 3]\nclass = Died", fillcolor="#e581397f"] ;
36 -> 37 ;
38 [label="gini = 0.5\nsamples = 2\nvalue = [1, 1]\nclass = Died", fillcolor="#e5813900"] ;
37 -> 38 ;
39 [label="gini = 0.408\nsamples = 3\nvalue = [5, 2]\nclass = Died", fillcolor="#e5813999"] ;
37 -> 39 ;
40 [label="gini = 0.0\nsamples = 4\nvalue = [6, 0]\nclass = Died", fillcolor="#e58139ff"] ;
36 -> 40 ;
41 [label="gini = 0.0\nsamples = 9\nvalue = [13, 0]\nclass = Died", fillcolor="#e58139ff"] ;
35 -> 41 ;
42 [label="Pclass <= 2.5\ngini = 0.308\nsamples = 11\nvalue = [17, 4]\nclass = Died", fillcolor="#e58139c3"] ;
22 -> 42 ;
43 [label="gini = 0.0\nsamples = 7\nvalue = [14, 0]\nclass = Died", fillcolor="#e58139ff"] ;
42 -> 43 ;
44 [label="Age <= 1.5\ngini = 0.49\nsamples = 4\nvalue = [3, 4]\nclass = Survived", fillcolor="#399de540"] ;
42 -> 44 ;
45 [label="gini = 0.5\nsamples = 2\nvalue = [1, 1]\nclass = Died", fillcolor="#e5813900"] ;
44 -> 45 ;
46 [label="gini = 0.48\nsamples = 2\nvalue = [2, 3]\nclass = Survived", fillcolor="#399de555"] ;
44 -> 46 ;
47 [label="Fare <= 2.5\ngini = 0.093\nsamples = 55\nvalue = [78, 4]\nclass = Died", fillcolor="#e58139f2"] ;
21 -> 47 ;
48 [label="Embarked <= 1.5\ngini = 0.098\nsamples = 52\nvalue = [73, 4]\nclass = Died", fillcolor="#e58139f1"] ;
47 -> 48 ;
49 [label="Fare <= 1.5\ngini = 0.111\nsamples = 31\nvalue = [48, 3]\nclass = Died", fillcolor="#e58139ef"] ;
48 -> 49 ;
50 [label="Age <= 1.5\ngini = 0.1\nsamples = 24\nvalue = [36, 2]\nclass = Died", fillcolor="#e58139f1"] ;
49 -> 50 ;
51 [label="Pclass <= 2.5\ngini = 0.124\nsamples = 18\nvalue = [28, 2]\nclass = Died", fillcolor="#e58139ed"] ;
50 -> 51 ;
52 [label="gini = 0.0\nsamples = 1\nvalue = [1, 0]\nclass = Died", fillcolor="#e58139ff"] ;
51 -> 52 ;
53 [label="gini = 0.128\nsamples = 17\nvalue = [27, 2]\nclass = Died", fillcolor="#e58139ec"] ;
51 -> 53 ;
54 [label="gini = 0.0\nsamples = 6\nvalue = [8, 0]\nclass = Died", fillcolor="#e58139ff"] ;
50 -> 54 ;
55 [label="Age <= 1.5\ngini = 0.142\nsamples = 7\nvalue = [12, 1]\nclass = Died", fillcolor="#e58139ea"] ;
49 -> 55 ;
56 [label="Pclass <= 2.0\ngini = 0.375\nsamples = 3\nvalue = [3, 1]\nclass = Died", fillcolor="#e58139aa"] ;
55 -> 56 ;
57 [label="gini = 0.0\nsamples = 2\nvalue = [3, 0]\nclass = Died", fillcolor="#e58139ff"] ;
56 -> 57 ;
58 [label="gini = 0.0\nsamples = 1\nvalue = [0, 1]\nclass = Survived", fillcolor="#399de5ff"] ;
56 -> 58 ;
59 [label="gini = 0.0\nsamples = 4\nvalue = [9, 0]\nclass = Died", fillcolor="#e58139ff"] ;
55 -> 59 ;
60 [label="Age <= 1.5\ngini = 0.074\nsamples = 21\nvalue = [25, 1]\nclass = Died", fillcolor="#e58139f5"] ;
48 -> 60 ;
61 [label="Fare <= 1.5\ngini = 0.18\nsamples = 9\nvalue = [9, 1]\nclass = Died", fillcolor="#e58139e3"] ;
60 -> 61 ;
62 [label="gini = 0.198\nsamples = 8\nvalue = [8, 1]\nclass = Died", fillcolor="#e58139df"] ;
61 -> 62 ;
63 [label="gini = 0.0\nsamples = 1\nvalue = [1, 0]\nclass = Died", fillcolor="#e58139ff"] ;
61 -> 63 ;
64 [label="gini = 0.0\nsamples = 12\nvalue = [16, 0]\nclass = Died", fillcolor="#e58139ff"] ;
60 -> 64 ;
65 [label="gini = 0.0\nsamples = 3\nvalue = [5, 0]\nclass = Died", fillcolor="#e58139ff"] ;
47 -> 65 ;
66 [label="Embarked <= 0.5\ngini = 0.291\nsamples = 60\nvalue = [17, 79]\nclass = Survived", fillcolor="#399de5c8"] ;
12 -> 66 ;
67 [label="Pclass <= 2.5\ngini = 0.386\nsamples = 41\nvalue = [17, 48]\nclass = Survived", fillcolor="#399de5a5"] ;
66 -> 67 ;
68 [label="Age <= 1.5\ngini = 0.153\nsamples = 15\nvalue = [2, 22]\nclass = Survived", fillcolor="#399de5e8"] ;
67 -> 68 ;
69 [label="gini = 0.0\nsamples = 8\nvalue = [0, 12]\nclass = Survived", fillcolor="#399de5ff"] ;
68 -> 69 ;
70 [label="Age <= 2.5\ngini = 0.278\nsamples = 7\nvalue = [2, 10]\nclass = Survived", fillcolor="#399de5cc"] ;
68 -> 70 ;
71 [label="Fare <= 1.5\ngini = 0.32\nsamples = 5\nvalue = [2, 8]\nclass = Survived", fillcolor="#399de5bf"] ;
70 -> 71 ;
72 [label="gini = 0.408\nsamples = 3\nvalue = [2, 5]\nclass = Survived", fillcolor="#399de599"] ;
71 -> 72 ;
73 [label="gini = 0.0\nsamples = 2\nvalue = [0, 3]\nclass = Survived", fillcolor="#399de5ff"] ;
71 -> 73 ;
74 [label="gini = 0.0\nsamples = 2\nvalue = [0, 2]\nclass = Survived", fillcolor="#399de5ff"] ;
70 -> 74 ;
75 [label="Age <= 1.5\ngini = 0.464\nsamples = 26\nvalue = [15, 26]\nclass = Survived", fillcolor="#399de56c"] ;
67 -> 75 ;
76 [label="Fare <= 2.0\ngini = 0.478\nsamples = 23\nvalue = [15, 23]\nclass = Survived", fillcolor="#399de559"] ;
75 -> 76 ;
77 [label="gini = 0.482\nsamples = 22\nvalue = [15, 22]\nclass = Survived", fillcolor="#399de551"] ;
76 -> 77 ;
78 [label="gini = 0.0\nsamples = 1\nvalue = [0, 1]\nclass = Survived", fillcolor="#399de5ff"] ;
76 -> 78 ;
79 [label="gini = 0.0\nsamples = 3\nvalue = [0, 3]\nclass = Survived", fillcolor="#399de5ff"] ;
75 -> 79 ;
80 [label="gini = 0.0\nsamples = 19\nvalue = [0, 31]\nclass = Survived", fillcolor="#399de5ff"] ;
66 -> 80 ;
81 [label="Sex_1 <= 0.5\ngini = 0.496\nsamples = 65\nvalue = [52, 43]\nclass = Died", fillcolor="#e581392c"] ;
1 -> 81 ;
82 [label="Age <= 2.5\ngini = 0.149\nsamples = 24\nvalue = [3, 34]\nclass = Survived", fillcolor="#399de5e9"] ;
81 -> 82 ;
83 [label="gini = 0.0\nsamples = 20\nvalue = [0, 31]\nclass = Survived", fillcolor="#399de5ff"] ;
82 -> 83 ;
84 [label="Embarked <= 0.5\ngini = 0.5\nsamples = 4\nvalue = [3, 3]\nclass = Died", fillcolor="#e5813900"] ;
82 -> 84 ;
85 [label="Fare <= 1.5\ngini = 0.444\nsamples = 2\nvalue = [1, 2]\nclass = Survived", fillcolor="#399de57f"] ;
84 -> 85 ;
86 [label="gini = 0.0\nsamples = 1\nvalue = [1, 0]\nclass = Died", fillcolor="#e58139ff"] ;
85 -> 86 ;
87 [label="gini = 0.0\nsamples = 1\nvalue = [0, 2]\nclass = Survived", fillcolor="#399de5ff"] ;
85 -> 87 ;
88 [label="Fare <= 2.5\ngini = 0.444\nsamples = 2\nvalue = [2, 1]\nclass = Died", fillcolor="#e581397f"] ;
84 -> 88 ;
89 [label="gini = 0.0\nsamples = 1\nvalue = [2, 0]\nclass = Died", fillcolor="#e58139ff"] ;
88 -> 89 ;
90 [label="gini = 0.0\nsamples = 1\nvalue = [0, 1]\nclass = Survived", fillcolor="#399de5ff"] ;
88 -> 90 ;
91 [label="Pclass <= 1.5\ngini = 0.262\nsamples = 41\nvalue = [49, 9]\nclass = Died", fillcolor="#e58139d0"] ;
81 -> 91 ;
92 [label="Embarked <= 0.5\ngini = 0.3\nsamples = 35\nvalue = [40, 9]\nclass = Died", fillcolor="#e58139c6"] ;
91 -> 92 ;
93 [label="Fare <= 2.5\ngini = 0.305\nsamples = 23\nvalue = [26, 6]\nclass = Died", fillcolor="#e58139c4"] ;
92 -> 93 ;
94 [label="Fare <= 1.0\ngini = 0.408\nsamples = 14\nvalue = [10, 4]\nclass = Died", fillcolor="#e5813999"] ;
93 -> 94 ;
95 [label="gini = 0.0\nsamples = 1\nvalue = [1, 0]\nclass = Died", fillcolor="#e58139ff"] ;
94 -> 95 ;
96 [label="Age <= 3.5\ngini = 0.426\nsamples = 13\nvalue = [9, 4]\nclass = Died", fillcolor="#e581398e"] ;
94 -> 96 ;
97 [label="Age <= 1.5\ngini = 0.444\nsamples = 12\nvalue = [8, 4]\nclass = Died", fillcolor="#e581397f"] ;
96 -> 97 ;
98 [label="gini = 0.375\nsamples = 4\nvalue = [3, 1]\nclass = Died", fillcolor="#e58139aa"] ;
97 -> 98 ;
99 [label="Age <= 2.5\ngini = 0.469\nsamples = 8\nvalue = [5, 3]\nclass = Died", fillcolor="#e5813966"] ;
97 -> 99 ;
100 [label="gini = 0.48\nsamples = 5\nvalue = [3, 2]\nclass = Died", fillcolor="#e5813955"] ;
99 -> 100 ;
101 [label="gini = 0.444\nsamples = 3\nvalue = [2, 1]\nclass = Died", fillcolor="#e581397f"] ;
99 -> 101 ;
102 [label="gini = 0.0\nsamples = 1\nvalue = [1, 0]\nclass = Died", fillcolor="#e58139ff"] ;
96 -> 102 ;
103 [label="Age <= 1.5\ngini = 0.198\nsamples = 9\nvalue = [16, 2]\nclass = Died", fillcolor="#e58139df"] ;
93 -> 103 ;
104 [label="gini = 0.0\nsamples = 2\nvalue = [6, 0]\nclass = Died", fillcolor="#e58139ff"] ;
103 -> 104 ;
105 [label="Age <= 2.5\ngini = 0.278\nsamples = 7\nvalue = [10, 2]\nclass = Died", fillcolor="#e58139cc"] ;
103 -> 105 ;
106 [label="gini = 0.32\nsamples = 5\nvalue = [8, 2]\nclass = Died", fillcolor="#e58139bf"] ;
105 -> 106 ;
107 [label="gini = 0.0\nsamples = 2\nvalue = [2, 0]\nclass = Died", fillcolor="#e58139ff"] ;
105 -> 107 ;
108 [label="Fare <= 2.5\ngini = 0.291\nsamples = 12\nvalue = [14, 3]\nclass = Died", fillcolor="#e58139c8"] ;
92 -> 108 ;
109 [label="Age <= 1.5\ngini = 0.278\nsamples = 6\nvalue = [5, 1]\nclass = Died", fillcolor="#e58139cc"] ;
108 -> 109 ;
110 [label="gini = 0.5\nsamples = 2\nvalue = [1, 1]\nclass = Died", fillcolor="#e5813900"] ;
109 -> 110 ;
111 [label="gini = 0.0\nsamples = 4\nvalue = [4, 0]\nclass = Died", fillcolor="#e58139ff"] ;
109 -> 111 ;
112 [label="Age <= 1.5\ngini = 0.298\nsamples = 6\nvalue = [9, 2]\nclass = Died", fillcolor="#e58139c6"] ;
108 -> 112 ;
113 [label="gini = 0.0\nsamples = 1\nvalue = [3, 0]\nclass = Died", fillcolor="#e58139ff"] ;
112 -> 113 ;
114 [label="Age <= 3.0\ngini = 0.375\nsamples = 5\nvalue = [6, 2]\nclass = Died", fillcolor="#e58139aa"] ;
112 -> 114 ;
115 [label="gini = 0.408\nsamples = 4\nvalue = [5, 2]\nclass = Died", fillcolor="#e5813999"] ;
114 -> 115 ;
116 [label="gini = 0.0\nsamples = 1\nvalue = [1, 0]\nclass = Died", fillcolor="#e58139ff"] ;
114 -> 116 ;
117 [label="gini = 0.0\nsamples = 6\nvalue = [9, 0]\nclass = Died", fillcolor="#e58139ff"] ;
91 -> 117 ;
118 [label="Sex_0 <= 0.5\ngini = 0.499\nsamples = 258\nvalue = [208, 227]\nclass = Survived", fillcolor="#399de515"] ;
0 -> 118 [labeldistance=2.5, labelangle=-45, headlabel="False"] ;
119 [label="FamilySize <= 4.5\ngini = 0.277\nsamples = 118\nvalue = [161, 32]\nclass = Died", fillcolor="#e58139cc"] ;
118 -> 119 ;
120 [label="FamilySize <= 2.5\ngini = 0.323\nsamples = 99\nvalue = [126, 32]\nclass = Died", fillcolor="#e58139be"] ;
119 -> 120 ;
121 [label="Embarked <= 0.5\ngini = 0.245\nsamples = 55\nvalue = [78, 13]\nclass = Died", fillcolor="#e58139d4"] ;
120 -> 121 ;
122 [label="Pclass <= 1.5\ngini = 0.205\nsamples = 42\nvalue = [61, 8]\nclass = Died", fillcolor="#e58139de"] ;
121 -> 122 ;
123 [label="Age <= 1.5\ngini = 0.375\nsamples = 14\nvalue = [15, 5]\nclass = Died", fillcolor="#e58139aa"] ;
122 -> 123 ;
124 [label="gini = 0.355\nsamples = 8\nvalue = [10, 3]\nclass = Died", fillcolor="#e58139b3"] ;
123 -> 124 ;
125 [label="gini = 0.408\nsamples = 6\nvalue = [5, 2]\nclass = Died", fillcolor="#e5813999"] ;
123 -> 125 ;
126 [label="Age <= 1.5\ngini = 0.115\nsamples = 28\nvalue = [46, 3]\nclass = Died", fillcolor="#e58139ee"] ;
122 -> 126 ;
127 [label="Pclass <= 2.5\ngini = 0.204\nsamples = 14\nvalue = [23, 3]\nclass = Died", fillcolor="#e58139de"] ;
126 -> 127 ;
128 [label="Fare <= 1.5\ngini = 0.231\nsamples = 7\nvalue = [13, 2]\nclass = Died", fillcolor="#e58139d8"] ;
127 -> 128 ;
129 [label="gini = 0.0\nsamples = 2\nvalue = [5, 0]\nclass = Died", fillcolor="#e58139ff"] ;
128 -> 129 ;
130 [label="Fare <= 2.5\ngini = 0.32\nsamples = 5\nvalue = [8, 2]\nclass = Died", fillcolor="#e58139bf"] ;
128 -> 130 ;
131 [label="gini = 0.346\nsamples = 4\nvalue = [7, 2]\nclass = Died", fillcolor="#e58139b6"] ;
130 -> 131 ;
132 [label="gini = 0.0\nsamples = 1\nvalue = [1, 0]\nclass = Died", fillcolor="#e58139ff"] ;
130 -> 132 ;
133 [label="Fare <= 1.5\ngini = 0.165\nsamples = 7\nvalue = [10, 1]\nclass = Died", fillcolor="#e58139e6"] ;
127 -> 133 ;
134 [label="Fare <= 0.5\ngini = 0.444\nsamples = 3\nvalue = [2, 1]\nclass = Died", fillcolor="#e581397f"] ;
133 -> 134 ;
135 [label="gini = 0.0\nsamples = 1\nvalue = [1, 0]\nclass = Died", fillcolor="#e58139ff"] ;
134 -> 135 ;
136 [label="gini = 0.5\nsamples = 2\nvalue = [1, 1]\nclass = Died", fillcolor="#e5813900"] ;
134 -> 136 ;
137 [label="gini = 0.0\nsamples = 4\nvalue = [8, 0]\nclass = Died", fillcolor="#e58139ff"] ;
133 -> 137 ;
138 [label="gini = 0.0\nsamples = 14\nvalue = [23, 0]\nclass = Died", fillcolor="#e58139ff"] ;
126 -> 138 ;
139 [label="Has_Cabin_1 <= 0.5\ngini = 0.351\nsamples = 13\nvalue = [17, 5]\nclass = Died", fillcolor="#e58139b4"] ;
121 -> 139 ;
140 [label="Age <= 0.5\ngini = 0.298\nsamples = 7\nvalue = [9, 2]\nclass = Died", fillcolor="#e58139c6"] ;
139 -> 140 ;
141 [label="Fare <= 1.5\ngini = 0.444\nsamples = 2\nvalue = [1, 2]\nclass = Survived", fillcolor="#399de57f"] ;
140 -> 141 ;
142 [label="gini = 0.0\nsamples = 1\nvalue = [0, 2]\nclass = Survived", fillcolor="#399de5ff"] ;
141 -> 142 ;
143 [label="gini = 0.0\nsamples = 1\nvalue = [1, 0]\nclass = Died", fillcolor="#e58139ff"] ;
141 -> 143 ;
144 [label="gini = 0.0\nsamples = 5\nvalue = [8, 0]\nclass = Died", fillcolor="#e58139ff"] ;
140 -> 144 ;
145 [label="Age <= 2.0\ngini = 0.397\nsamples = 6\nvalue = [8, 3]\nclass = Died", fillcolor="#e581399f"] ;
139 -> 145 ;
146 [label="gini = 0.49\nsamples = 4\nvalue = [4, 3]\nclass = Died", fillcolor="#e5813940"] ;
145 -> 146 ;
147 [label="gini = 0.0\nsamples = 2\nvalue = [4, 0]\nclass = Died", fillcolor="#e58139ff"] ;
145 -> 147 ;
148 [label="Has_Cabin_1 <= 0.5\ngini = 0.406\nsamples = 44\nvalue = [48, 19]\nclass = Died", fillcolor="#e581399a"] ;
120 -> 148 ;
149 [label="Fare <= 1.5\ngini = 0.365\nsamples = 30\nvalue = [38, 12]\nclass = Died", fillcolor="#e58139ae"] ;
148 -> 149 ;
150 [label="gini = 0.0\nsamples = 5\nvalue = [9, 0]\nclass = Died", fillcolor="#e58139ff"] ;
149 -> 150 ;
151 [label="Fare <= 2.5\ngini = 0.414\nsamples = 25\nvalue = [29, 12]\nclass = Died", fillcolor="#e5813995"] ;
149 -> 151 ;
152 [label="Age <= 0.5\ngini = 0.444\nsamples = 20\nvalue = [24, 12]\nclass = Died", fillcolor="#e581397f"] ;
151 -> 152 ;
153 [label="Pclass <= 2.5\ngini = 0.32\nsamples = 7\nvalue = [3, 12]\nclass = Survived", fillcolor="#399de5bf"] ;
152 -> 153 ;
154 [label="gini = 0.0\nsamples = 2\nvalue = [0, 3]\nclass = Survived", fillcolor="#399de5ff"] ;
153 -> 154 ;
155 [label="Embarked <= 1.5\ngini = 0.375\nsamples = 5\nvalue = [3, 9]\nclass = Survived", fillcolor="#399de5aa"] ;
153 -> 155 ;
156 [label="Embarked <= 0.5\ngini = 0.42\nsamples = 4\nvalue = [3, 7]\nclass = Survived", fillcolor="#399de592"] ;
155 -> 156 ;
157 [label="FamilySize <= 3.5\ngini = 0.444\nsamples = 2\nvalue = [1, 2]\nclass = Survived", fillcolor="#399de57f"] ;
156 -> 157 ;
158 [label="gini = 0.0\nsamples = 1\nvalue = [1, 0]\nclass = Died", fillcolor="#e58139ff"] ;
157 -> 158 ;
159 [label="gini = 0.0\nsamples = 1\nvalue = [0, 2]\nclass = Survived", fillcolor="#399de5ff"] ;
157 -> 159 ;
160 [label="gini = 0.408\nsamples = 2\nvalue = [2, 5]\nclass = Survived", fillcolor="#399de599"] ;
156 -> 160 ;
161 [label="gini = 0.0\nsamples = 1\nvalue = [0, 2]\nclass = Survived", fillcolor="#399de5ff"] ;
155 -> 161 ;
162 [label="gini = 0.0\nsamples = 13\nvalue = [21, 0]\nclass = Died", fillcolor="#e58139ff"] ;
152 -> 162 ;
163 [label="gini = 0.0\nsamples = 5\nvalue = [5, 0]\nclass = Died", fillcolor="#e58139ff"] ;
151 -> 163 ;
164 [label="FamilySize <= 3.5\ngini = 0.484\nsamples = 14\nvalue = [10, 7]\nclass = Died", fillcolor="#e581394d"] ;
148 -> 164 ;
165 [label="Fare <= 2.5\ngini = 0.459\nsamples = 11\nvalue = [9, 5]\nclass = Died", fillcolor="#e5813971"] ;
164 -> 165 ;
166 [label="gini = 0.0\nsamples = 2\nvalue = [0, 2]\nclass = Survived", fillcolor="#399de5ff"] ;
165 -> 166 ;
167 [label="Age <= 2.5\ngini = 0.375\nsamples = 9\nvalue = [9, 3]\nclass = Died", fillcolor="#e58139aa"] ;
165 -> 167 ;
168 [label="Embarked <= 0.5\ngini = 0.408\nsamples = 5\nvalue = [5, 2]\nclass = Died", fillcolor="#e5813999"] ;
167 -> 168 ;
169 [label="gini = 0.0\nsamples = 2\nvalue = [0, 2]\nclass = Survived", fillcolor="#399de5ff"] ;
168 -> 169 ;
170 [label="gini = 0.0\nsamples = 3\nvalue = [5, 0]\nclass = Died", fillcolor="#e58139ff"] ;
168 -> 170 ;
171 [label="Embarked <= 0.5\ngini = 0.32\nsamples = 4\nvalue = [4, 1]\nclass = Died", fillcolor="#e58139bf"] ;
167 -> 171 ;
172 [label="gini = 0.0\nsamples = 2\nvalue = [3, 0]\nclass = Died", fillcolor="#e58139ff"] ;
171 -> 172 ;
173 [label="gini = 0.5\nsamples = 2\nvalue = [1, 1]\nclass = Died", fillcolor="#e5813900"] ;
171 -> 173 ;
174 [label="Age <= 0.5\ngini = 0.444\nsamples = 3\nvalue = [1, 2]\nclass = Survived", fillcolor="#399de57f"] ;
164 -> 174 ;
175 [label="gini = 0.0\nsamples = 2\nvalue = [0, 2]\nclass = Survived", fillcolor="#399de5ff"] ;
174 -> 175 ;
176 [label="gini = 0.0\nsamples = 1\nvalue = [1, 0]\nclass = Died", fillcolor="#e58139ff"] ;
174 -> 176 ;
177 [label="gini = 0.0\nsamples = 19\nvalue = [35, 0]\nclass = Died", fillcolor="#e58139ff"] ;
119 -> 177 ;
178 [label="FamilySize <= 5.5\ngini = 0.313\nsamples = 140\nvalue = [47, 195]\nclass = Survived", fillcolor="#399de5c2"] ;
118 -> 178 ;
179 [label="Pclass <= 2.5\ngini = 0.202\nsamples = 121\nvalue = [23, 179]\nclass = Survived", fillcolor="#399de5de"] ;
178 -> 179 ;
180 [label="Fare <= 2.5\ngini = 0.016\nsamples = 77\nvalue = [1, 124]\nclass = Survived", fillcolor="#399de5fd"] ;
179 -> 180 ;
181 [label="Has_Cabin_0 <= 0.5\ngini = 0.043\nsamples = 28\nvalue = [1, 45]\nclass = Survived", fillcolor="#399de5f9"] ;
180 -> 181 ;
182 [label="gini = 0.0\nsamples = 3\nvalue = [0, 4]\nclass = Survived", fillcolor="#399de5ff"] ;
181 -> 182 ;
183 [label="Embarked <= 0.5\ngini = 0.046\nsamples = 25\nvalue = [1, 41]\nclass = Survived", fillcolor="#399de5f9"] ;
181 -> 183 ;
184 [label="FamilySize <= 2.5\ngini = 0.051\nsamples = 21\nvalue = [1, 37]\nclass = Survived", fillcolor="#399de5f8"] ;
183 -> 184 ;
185 [label="Age <= 1.5\ngini = 0.1\nsamples = 11\nvalue = [1, 18]\nclass = Survived", fillcolor="#399de5f1"] ;
184 -> 185 ;
186 [label="gini = 0.0\nsamples = 8\nvalue = [0, 14]\nclass = Survived", fillcolor="#399de5ff"] ;
185 -> 186 ;
187 [label="gini = 0.32\nsamples = 3\nvalue = [1, 4]\nclass = Survived", fillcolor="#399de5bf"] ;
185 -> 187 ;
188 [label="gini = 0.0\nsamples = 10\nvalue = [0, 19]\nclass = Survived", fillcolor="#399de5ff"] ;
184 -> 188 ;
189 [label="gini = 0.0\nsamples = 4\nvalue = [0, 4]\nclass = Survived", fillcolor="#399de5ff"] ;
183 -> 189 ;
190 [label="gini = 0.0\nsamples = 49\nvalue = [0, 79]\nclass = Survived", fillcolor="#399de5ff"] ;
180 -> 190 ;
191 [label="Fare <= 2.5\ngini = 0.408\nsamples = 44\nvalue = [22, 55]\nclass = Survived", fillcolor="#399de599"] ;
179 -> 191 ;
192 [label="Has_Cabin_1 <= 0.5\ngini = 0.391\nsamples = 43\nvalue = [20, 55]\nclass = Survived", fillcolor="#399de5a2"] ;
191 -> 192 ;
193 [label="Embarked <= 0.5\ngini = 0.389\nsamples = 41\nvalue = [19, 53]\nclass = Survived", fillcolor="#399de5a4"] ;
192 -> 193 ;
194 [label="Fare <= 1.5\ngini = 0.44\nsamples = 26\nvalue = [15, 31]\nclass = Survived", fillcolor="#399de584"] ;
193 -> 194 ;
195 [label="Age <= 0.5\ngini = 0.142\nsamples = 7\nvalue = [1, 12]\nclass = Survived", fillcolor="#399de5ea"] ;
194 -> 195 ;
196 [label="gini = 0.0\nsamples = 3\nvalue = [0, 6]\nclass = Survived", fillcolor="#399de5ff"] ;
195 -> 196 ;
197 [label="FamilySize <= 2.5\ngini = 0.245\nsamples = 4\nvalue = [1, 6]\nclass = Survived", fillcolor="#399de5d4"] ;
195 -> 197 ;
198 [label="gini = 0.0\nsamples = 1\nvalue = [1, 0]\nclass = Died", fillcolor="#e58139ff"] ;
197 -> 198 ;
199 [label="gini = 0.0\nsamples = 3\nvalue = [0, 6]\nclass = Survived", fillcolor="#399de5ff"] ;
197 -> 199 ;
200 [label="FamilySize <= 2.5\ngini = 0.489\nsamples = 19\nvalue = [14, 19]\nclass = Survived", fillcolor="#399de543"] ;
194 -> 200 ;
201 [label="Age <= 1.5\ngini = 0.298\nsamples = 7\nvalue = [2, 9]\nclass = Survived", fillcolor="#399de5c6"] ;
200 -> 201 ;
202 [label="gini = 0.278\nsamples = 4\nvalue = [1, 5]\nclass = Survived", fillcolor="#399de5cc"] ;
201 -> 202 ;
203 [label="gini = 0.32\nsamples = 3\nvalue = [1, 4]\nclass = Survived", fillcolor="#399de5bf"] ;
201 -> 203 ;
204 [label="FamilySize <= 3.5\ngini = 0.496\nsamples = 12\nvalue = [12, 10]\nclass = Died", fillcolor="#e581392a"] ;
200 -> 204 ;
205 [label="Age <= 1.5\ngini = 0.444\nsamples = 8\nvalue = [10, 5]\nclass = Died", fillcolor="#e581397f"] ;
204 -> 205 ;
206 [label="Age <= 0.5\ngini = 0.355\nsamples = 6\nvalue = [10, 3]\nclass = Died", fillcolor="#e58139b3"] ;
205 -> 206 ;
207 [label="gini = 0.444\nsamples = 2\nvalue = [1, 2]\nclass = Survived", fillcolor="#399de57f"] ;
206 -> 207 ;
208 [label="gini = 0.18\nsamples = 4\nvalue = [9, 1]\nclass = Died", fillcolor="#e58139e3"] ;
206 -> 208 ;
209 [label="gini = 0.0\nsamples = 2\nvalue = [0, 2]\nclass = Survived", fillcolor="#399de5ff"] ;
205 -> 209 ;
210 [label="FamilySize <= 4.5\ngini = 0.408\nsamples = 4\nvalue = [2, 5]\nclass = Survived", fillcolor="#399de599"] ;
204 -> 210 ;
211 [label="gini = 0.444\nsamples = 2\nvalue = [1, 2]\nclass = Survived", fillcolor="#399de57f"] ;
210 -> 211 ;
212 [label="Age <= 1.5\ngini = 0.375\nsamples = 2\nvalue = [1, 3]\nclass = Survived", fillcolor="#399de5aa"] ;
210 -> 212 ;
213 [label="gini = 0.0\nsamples = 1\nvalue = [1, 0]\nclass = Died", fillcolor="#e58139ff"] ;
212 -> 213 ;
214 [label="gini = 0.0\nsamples = 1\nvalue = [0, 3]\nclass = Survived", fillcolor="#399de5ff"] ;
212 -> 214 ;
215 [label="Fare <= 1.5\ngini = 0.26\nsamples = 15\nvalue = [4, 22]\nclass = Survived", fillcolor="#399de5d1"] ;
193 -> 215 ;
216 [label="FamilySize <= 2.5\ngini = 0.408\nsamples = 3\nvalue = [2, 5]\nclass = Survived", fillcolor="#399de599"] ;
215 -> 216 ;
217 [label="gini = 0.0\nsamples = 2\nvalue = [0, 5]\nclass = Survived", fillcolor="#399de5ff"] ;
216 -> 217 ;
218 [label="gini = 0.0\nsamples = 1\nvalue = [2, 0]\nclass = Died", fillcolor="#e58139ff"] ;
216 -> 218 ;
219 [label="Age <= 1.5\ngini = 0.188\nsamples = 12\nvalue = [2, 17]\nclass = Survived", fillcolor="#399de5e1"] ;
215 -> 219 ;
220 [label="Age <= 0.5\ngini = 0.298\nsamples = 7\nvalue = [2, 9]\nclass = Survived", fillcolor="#399de5c6"] ;
219 -> 220 ;
221 [label="FamilySize <= 3.5\ngini = 0.278\nsamples = 4\nvalue = [1, 5]\nclass = Survived", fillcolor="#399de5cc"] ;
220 -> 221 ;
222 [label="gini = 0.444\nsamples = 2\nvalue = [1, 2]\nclass = Survived", fillcolor="#399de57f"] ;
221 -> 222 ;
223 [label="gini = 0.0\nsamples = 2\nvalue = [0, 3]\nclass = Survived", fillcolor="#399de5ff"] ;
221 -> 223 ;
224 [label="FamilySize <= 2.5\ngini = 0.32\nsamples = 3\nvalue = [1, 4]\nclass = Survived", fillcolor="#399de5bf"] ;
220 -> 224 ;
225 [label="gini = 0.0\nsamples = 1\nvalue = [0, 3]\nclass = Survived", fillcolor="#399de5ff"] ;
224 -> 225 ;
226 [label="Embarked <= 1.5\ngini = 0.5\nsamples = 2\nvalue = [1, 1]\nclass = Died", fillcolor="#e5813900"] ;
224 -> 226 ;
227 [label="gini = 0.0\nsamples = 1\nvalue = [0, 1]\nclass = Survived", fillcolor="#399de5ff"] ;
226 -> 227 ;
228 [label="gini = 0.0\nsamples = 1\nvalue = [1, 0]\nclass = Died", fillcolor="#e58139ff"] ;
226 -> 228 ;
229 [label="gini = 0.0\nsamples = 5\nvalue = [0, 8]\nclass = Survived", fillcolor="#399de5ff"] ;
219 -> 229 ;
230 [label="Fare <= 1.5\ngini = 0.444\nsamples = 2\nvalue = [1, 2]\nclass = Survived", fillcolor="#399de57f"] ;
192 -> 230 ;
231 [label="gini = 0.0\nsamples = 1\nvalue = [1, 0]\nclass = Died", fillcolor="#e58139ff"] ;
230 -> 231 ;
232 [label="gini = 0.0\nsamples = 1\nvalue = [0, 2]\nclass = Survived", fillcolor="#399de5ff"] ;
230 -> 232 ;
233 [label="gini = 0.0\nsamples = 1\nvalue = [2, 0]\nclass = Died", fillcolor="#e58139ff"] ;
191 -> 233 ;
234 [label="Pclass <= 2.5\ngini = 0.48\nsamples = 19\nvalue = [24, 16]\nclass = Died", fillcolor="#e5813955"] ;
178 -> 234 ;
235 [label="gini = 0.0\nsamples = 4\nvalue = [0, 6]\nclass = Survived", fillcolor="#399de5ff"] ;
234 -> 235 ;
236 [label="Age <= 0.5\ngini = 0.415\nsamples = 15\nvalue = [24, 10]\nclass = Died", fillcolor="#e5813995"] ;
234 -> 236 ;
237 [label="Fare <= 2.5\ngini = 0.219\nsamples = 6\nvalue = [14, 2]\nclass = Died", fillcolor="#e58139db"] ;
236 -> 237 ;
238 [label="gini = 0.0\nsamples = 1\nvalue = [5, 0]\nclass = Died", fillcolor="#e58139ff"] ;
237 -> 238 ;
239 [label="FamilySize <= 7.5\ngini = 0.298\nsamples = 5\nvalue = [9, 2]\nclass = Died", fillcolor="#e58139c6"] ;
237 -> 239 ;
240 [label="gini = 0.0\nsamples = 4\nvalue = [9, 0]\nclass = Died", fillcolor="#e58139ff"] ;
239 -> 240 ;
241 [label="gini = 0.0\nsamples = 1\nvalue = [0, 2]\nclass = Survived", fillcolor="#399de5ff"] ;
239 -> 241 ;
242 [label="FamilySize <= 6.5\ngini = 0.494\nsamples = 9\nvalue = [10, 8]\nclass = Died", fillcolor="#e5813933"] ;
236 -> 242 ;
243 [label="gini = 0.0\nsamples = 3\nvalue = [8, 0]\nclass = Died", fillcolor="#e58139ff"] ;
242 -> 243 ;
244 [label="FamilySize <= 9.0\ngini = 0.32\nsamples = 6\nvalue = [2, 8]\nclass = Survived", fillcolor="#399de5bf"] ;
242 -> 244 ;
245 [label="gini = 0.0\nsamples = 2\nvalue = [0, 6]\nclass = Survived", fillcolor="#399de5ff"] ;
244 -> 245 ;
246 [label="Age <= 1.5\ngini = 0.5\nsamples = 4\nvalue = [2, 2]\nclass = Died", fillcolor="#e5813900"] ;
244 -> 246 ;
247 [label="gini = 0.0\nsamples = 2\nvalue = [0, 2]\nclass = Survived", fillcolor="#399de5ff"] ;
246 -> 247 ;
248 [label="gini = 0.0\nsamples = 2\nvalue = [2, 0]\nclass = Died", fillcolor="#e58139ff"] ;
246 -> 248 ;
}