digraph Tree {
node [shape=box, style="filled, rounded", color="black", fontname=helvetica] ;
edge [fontname=helvetica] ;
0 [label="Has_Cabin_0 <= 0.5\ngini = 0.466\nsamples = 658\nvalue = [661, 386]\nclass = Died", fillcolor="#e581396a"] ;
1 [label="FamilySize <= 1.5\ngini = 0.481\nsamples = 157\nvalue = [99, 147]\nclass = Survived", fillcolor="#399de553"] ;
0 -> 1 [labeldistance=2.5, labelangle=45, headlabel="True"] ;
2 [label="Sex_1 <= 0.5\ngini = 0.492\nsamples = 67\nvalue = [58, 45]\nclass = Died", fillcolor="#e5813939"] ;
1 -> 2 ;
3 [label="Pclass <= 1.5\ngini = 0.133\nsamples = 25\nvalue = [3, 39]\nclass = Survived", fillcolor="#399de5eb"] ;
2 -> 3 ;
4 [label="gini = 0.0\nsamples = 19\nvalue = [0, 31]\nclass = Survived", fillcolor="#399de5ff"] ;
3 -> 4 ;
5 [label="Age <= 2.0\ngini = 0.397\nsamples = 6\nvalue = [3, 8]\nclass = Survived", fillcolor="#399de59f"] ;
3 -> 5 ;
6 [label="gini = 0.0\nsamples = 5\nvalue = [0, 8]\nclass = Survived", fillcolor="#399de5ff"] ;
5 -> 6 ;
7 [label="gini = 0.0\nsamples = 1\nvalue = [3, 0]\nclass = Died", fillcolor="#e58139ff"] ;
5 -> 7 ;
8 [label="Embarked <= 0.5\ngini = 0.177\nsamples = 42\nvalue = [55, 6]\nclass = Died", fillcolor="#e58139e3"] ;
2 -> 8 ;
9 [label="Pclass <= 1.5\ngini = 0.1\nsamples = 26\nvalue = [36, 2]\nclass = Died", fillcolor="#e58139f1"] ;
8 -> 9 ;
10 [label="Fare <= 2.5\ngini = 0.114\nsamples = 23\nvalue = [31, 2]\nclass = Died", fillcolor="#e58139ef"] ;
9 -> 10 ;
11 [label="Age <= 1.5\ngini = 0.245\nsamples = 12\nvalue = [12, 2]\nclass = Died", fillcolor="#e58139d4"] ;
10 -> 11 ;
12 [label="gini = 0.0\nsamples = 3\nvalue = [4, 0]\nclass = Died", fillcolor="#e58139ff"] ;
11 -> 12 ;
13 [label="Age <= 2.5\ngini = 0.32\nsamples = 9\nvalue = [8, 2]\nclass = Died", fillcolor="#e58139bf"] ;
11 -> 13 ;
14 [label="Fare <= 1.0\ngini = 0.444\nsamples = 6\nvalue = [4, 2]\nclass = Died", fillcolor="#e581397f"] ;
13 -> 14 ;
15 [label="gini = 0.0\nsamples = 2\nvalue = [2, 0]\nclass = Died", fillcolor="#e58139ff"] ;
14 -> 15 ;
16 [label="gini = 0.5\nsamples = 4\nvalue = [2, 2]\nclass = Died", fillcolor="#e5813900"] ;
14 -> 16 ;
17 [label="gini = 0.0\nsamples = 3\nvalue = [4, 0]\nclass = Died", fillcolor="#e58139ff"] ;
13 -> 17 ;
18 [label="gini = 0.0\nsamples = 11\nvalue = [19, 0]\nclass = Died", fillcolor="#e58139ff"] ;
10 -> 18 ;
19 [label="gini = 0.0\nsamples = 3\nvalue = [5, 0]\nclass = Died", fillcolor="#e58139ff"] ;
9 -> 19 ;
20 [label="Fare <= 1.5\ngini = 0.287\nsamples = 16\nvalue = [19, 4]\nclass = Died", fillcolor="#e58139c9"] ;
8 -> 20 ;
21 [label="gini = 0.0\nsamples = 4\nvalue = [4, 0]\nclass = Died", fillcolor="#e58139ff"] ;
20 -> 21 ;
22 [label="Fare <= 2.5\ngini = 0.332\nsamples = 12\nvalue = [15, 4]\nclass = Died", fillcolor="#e58139bb"] ;
20 -> 22 ;
23 [label="Age <= 1.5\ngini = 0.375\nsamples = 5\nvalue = [6, 2]\nclass = Died", fillcolor="#e58139aa"] ;
22 -> 23 ;
24 [label="gini = 0.408\nsamples = 4\nvalue = [5, 2]\nclass = Died", fillcolor="#e5813999"] ;
23 -> 24 ;
25 [label="gini = 0.0\nsamples = 1\nvalue = [1, 0]\nclass = Died", fillcolor="#e58139ff"] ;
23 -> 25 ;
26 [label="Age <= 1.5\ngini = 0.298\nsamples = 7\nvalue = [9, 2]\nclass = Died", fillcolor="#e58139c6"] ;
22 -> 26 ;
27 [label="gini = 0.48\nsamples = 3\nvalue = [3, 2]\nclass = Died", fillcolor="#e5813955"] ;
26 -> 27 ;
28 [label="gini = 0.0\nsamples = 4\nvalue = [6, 0]\nclass = Died", fillcolor="#e58139ff"] ;
26 -> 28 ;
29 [label="Sex_0 <= 0.5\ngini = 0.409\nsamples = 90\nvalue = [41, 102]\nclass = Survived", fillcolor="#399de598"] ;
1 -> 29 ;
30 [label="Pclass <= 1.5\ngini = 0.456\nsamples = 40\nvalue = [37, 20]\nclass = Died", fillcolor="#e5813975"] ;
29 -> 30 ;
31 [label="Age <= 0.5\ngini = 0.422\nsamples = 37\nvalue = [37, 16]\nclass = Died", fillcolor="#e5813991"] ;
30 -> 31 ;
32 [label="gini = 0.0\nsamples = 2\nvalue = [0, 3]\nclass = Survived", fillcolor="#399de5ff"] ;
31 -> 32 ;
33 [label="FamilySize <= 2.5\ngini = 0.385\nsamples = 35\nvalue = [37, 13]\nclass = Died", fillcolor="#e58139a5"] ;
31 -> 33 ;
34 [label="Age <= 1.5\ngini = 0.444\nsamples = 25\nvalue = [22, 11]\nclass = Died", fillcolor="#e581397f"] ;
33 -> 34 ;
35 [label="Embarked <= 0.5\ngini = 0.496\nsamples = 8\nvalue = [6, 5]\nclass = Died", fillcolor="#e581392a"] ;
34 -> 35 ;
36 [label="gini = 0.444\nsamples = 6\nvalue = [6, 3]\nclass = Died", fillcolor="#e581397f"] ;
35 -> 36 ;
37 [label="gini = 0.0\nsamples = 2\nvalue = [0, 2]\nclass = Survived", fillcolor="#399de5ff"] ;
35 -> 37 ;
38 [label="Age <= 3.5\ngini = 0.397\nsamples = 17\nvalue = [16, 6]\nclass = Died", fillcolor="#e581399f"] ;
34 -> 38 ;
39 [label="Age <= 2.5\ngini = 0.408\nsamples = 16\nvalue = [15, 6]\nclass = Died", fillcolor="#e5813999"] ;
38 -> 39 ;
40 [label="Fare <= 2.5\ngini = 0.408\nsamples = 10\nvalue = [10, 4]\nclass = Died", fillcolor="#e5813999"] ;
39 -> 40 ;
41 [label="gini = 0.0\nsamples = 1\nvalue = [1, 0]\nclass = Died", fillcolor="#e58139ff"] ;
40 -> 41 ;
42 [label="Embarked <= 0.5\ngini = 0.426\nsamples = 9\nvalue = [9, 4]\nclass = Died", fillcolor="#e581398e"] ;
40 -> 42 ;
43 [label="gini = 0.397\nsamples = 7\nvalue = [8, 3]\nclass = Died", fillcolor="#e581399f"] ;
42 -> 43 ;
44 [label="gini = 0.5\nsamples = 2\nvalue = [1, 1]\nclass = Died", fillcolor="#e5813900"] ;
42 -> 44 ;
45 [label="Embarked <= 0.5\ngini = 0.408\nsamples = 6\nvalue = [5, 2]\nclass = Died", fillcolor="#e5813999"] ;
39 -> 45 ;
46 [label="gini = 0.0\nsamples = 2\nvalue = [2, 0]\nclass = Died", fillcolor="#e58139ff"] ;
45 -> 46 ;
47 [label="gini = 0.48\nsamples = 4\nvalue = [3, 2]\nclass = Died", fillcolor="#e5813955"] ;
45 -> 47 ;
48 [label="gini = 0.0\nsamples = 1\nvalue = [1, 0]\nclass = Died", fillcolor="#e58139ff"] ;
38 -> 48 ;
49 [label="Age <= 2.5\ngini = 0.208\nsamples = 10\nvalue = [15, 2]\nclass = Died", fillcolor="#e58139dd"] ;
33 -> 49 ;
50 [label="Embarked <= 0.5\ngini = 0.375\nsamples = 5\nvalue = [6, 2]\nclass = Died", fillcolor="#e58139aa"] ;
49 -> 50 ;
51 [label="Age <= 1.5\ngini = 0.32\nsamples = 3\nvalue = [4, 1]\nclass = Died", fillcolor="#e58139bf"] ;
50 -> 51 ;
52 [label="gini = 0.0\nsamples = 2\nvalue = [4, 0]\nclass = Died", fillcolor="#e58139ff"] ;
51 -> 52 ;
53 [label="gini = 0.0\nsamples = 1\nvalue = [0, 1]\nclass = Survived", fillcolor="#399de5ff"] ;
51 -> 53 ;
54 [label="Age <= 1.5\ngini = 0.444\nsamples = 2\nvalue = [2, 1]\nclass = Died", fillcolor="#e581397f"] ;
50 -> 54 ;
55 [label="gini = 0.0\nsamples = 1\nvalue = [0, 1]\nclass = Survived", fillcolor="#399de5ff"] ;
54 -> 55 ;
56 [label="gini = 0.0\nsamples = 1\nvalue = [2, 0]\nclass = Died", fillcolor="#e58139ff"] ;
54 -> 56 ;
57 [label="gini = 0.0\nsamples = 5\nvalue = [9, 0]\nclass = Died", fillcolor="#e58139ff"] ;
49 -> 57 ;
58 [label="gini = 0.0\nsamples = 3\nvalue = [0, 4]\nclass = Survived", fillcolor="#399de5ff"] ;
30 -> 58 ;
59 [label="Age <= 1.5\ngini = 0.089\nsamples = 50\nvalue = [4, 82]\nclass = Survived", fillcolor="#399de5f3"] ;
29 -> 59 ;
60 [label="Embarked <= 0.5\ngini = 0.18\nsamples = 23\nvalue = [4, 36]\nclass = Survived", fillcolor="#399de5e3"] ;
59 -> 60 ;
61 [label="Fare <= 1.5\ngini = 0.238\nsamples = 15\nvalue = [4, 25]\nclass = Survived", fillcolor="#399de5d6"] ;
60 -> 61 ;
62 [label="gini = 0.0\nsamples = 2\nvalue = [3, 0]\nclass = Died", fillcolor="#e58139ff"] ;
61 -> 62 ;
63 [label="Age <= 0.5\ngini = 0.074\nsamples = 13\nvalue = [1, 25]\nclass = Survived", fillcolor="#399de5f5"] ;
61 -> 63 ;
64 [label="gini = 0.0\nsamples = 4\nvalue = [0, 5]\nclass = Survived", fillcolor="#399de5ff"] ;
63 -> 64 ;
65 [label="Fare <= 2.5\ngini = 0.091\nsamples = 9\nvalue = [1, 20]\nclass = Survived", fillcolor="#399de5f2"] ;
63 -> 65 ;
66 [label="gini = 0.0\nsamples = 1\nvalue = [0, 1]\nclass = Survived", fillcolor="#399de5ff"] ;
65 -> 66 ;
67 [label="FamilySize <= 3.5\ngini = 0.095\nsamples = 8\nvalue = [1, 19]\nclass = Survived", fillcolor="#399de5f2"] ;
65 -> 67 ;
68 [label="gini = 0.0\nsamples = 4\nvalue = [0, 10]\nclass = Survived", fillcolor="#399de5ff"] ;
67 -> 68 ;
69 [label="FamilySize <= 5.0\ngini = 0.18\nsamples = 4\nvalue = [1, 9]\nclass = Survived", fillcolor="#399de5e3"] ;
67 -> 69 ;
70 [label="gini = 0.278\nsamples = 2\nvalue = [1, 5]\nclass = Survived", fillcolor="#399de5cc"] ;
69 -> 70 ;
71 [label="gini = 0.0\nsamples = 2\nvalue = [0, 4]\nclass = Survived", fillcolor="#399de5ff"] ;
69 -> 71 ;
72 [label="gini = 0.0\nsamples = 8\nvalue = [0, 11]\nclass = Survived", fillcolor="#399de5ff"] ;
60 -> 72 ;
73 [label="gini = 0.0\nsamples = 27\nvalue = [0, 46]\nclass = Survived", fillcolor="#399de5ff"] ;
59 -> 73 ;
74 [label="Sex_0 <= 0.5\ngini = 0.419\nsamples = 501\nvalue = [562, 239]\nclass = Died", fillcolor="#e5813993"] ;
0 -> 74 [labeldistance=2.5, labelangle=-45, headlabel="False"] ;
75 [label="FamilySize <= 2.5\ngini = 0.168\nsamples = 347\nvalue = [501, 51]\nclass = Died", fillcolor="#e58139e5"] ;
74 -> 75 ;
76 [label="Fare <= 2.5\ngini = 0.142\nsamples = 289\nvalue = [420, 35]\nclass = Died", fillcolor="#e58139ea"] ;
75 -> 76 ;
77 [label="FamilySize <= 1.5\ngini = 0.134\nsamples = 272\nvalue = [398, 31]\nclass = Died", fillcolor="#e58139eb"] ;
76 -> 77 ;
78 [label="Age <= 0.5\ngini = 0.128\nsamples = 237\nvalue = [340, 25]\nclass = Died", fillcolor="#e58139ec"] ;
77 -> 78 ;
79 [label="gini = 0.0\nsamples = 5\nvalue = [6, 0]\nclass = Died", fillcolor="#e58139ff"] ;
78 -> 79 ;
80 [label="Embarked <= 1.5\ngini = 0.13\nsamples = 232\nvalue = [334, 25]\nclass = Died", fillcolor="#e58139ec"] ;
78 -> 80 ;
81 [label="Fare <= 0.5\ngini = 0.144\nsamples = 209\nvalue = [295, 25]\nclass = Died", fillcolor="#e58139e9"] ;
80 -> 81 ;
82 [label="Pclass <= 2.5\ngini = 0.133\nsamples = 9\nvalue = [13, 1]\nclass = Died", fillcolor="#e58139eb"] ;
81 -> 82 ;
83 [label="gini = 0.0\nsamples = 4\nvalue = [6, 0]\nclass = Died", fillcolor="#e58139ff"] ;
82 -> 83 ;
84 [label="Embarked <= 0.5\ngini = 0.219\nsamples = 5\nvalue = [7, 1]\nclass = Died", fillcolor="#e58139db"] ;
82 -> 84 ;
85 [label="Age <= 1.5\ngini = 0.375\nsamples = 3\nvalue = [3, 1]\nclass = Died", fillcolor="#e58139aa"] ;
84 -> 85 ;
86 [label="gini = 0.0\nsamples = 1\nvalue = [0, 1]\nclass = Survived", fillcolor="#399de5ff"] ;
85 -> 86 ;
87 [label="gini = 0.0\nsamples = 2\nvalue = [3, 0]\nclass = Died", fillcolor="#e58139ff"] ;
85 -> 87 ;
88 [label="gini = 0.0\nsamples = 2\nvalue = [4, 0]\nclass = Died", fillcolor="#e58139ff"] ;
84 -> 88 ;
89 [label="Embarked <= 0.5\ngini = 0.145\nsamples = 200\nvalue = [282, 24]\nclass = Died", fillcolor="#e58139e9"] ;
81 -> 89 ;
90 [label="Age <= 1.5\ngini = 0.13\nsamples = 174\nvalue = [254, 19]\nclass = Died", fillcolor="#e58139ec"] ;
89 -> 90 ;
91 [label="Fare <= 1.5\ngini = 0.105\nsamples = 114\nvalue = [170, 10]\nclass = Died", fillcolor="#e58139f0"] ;
90 -> 91 ;
92 [label="Pclass <= 2.5\ngini = 0.102\nsamples = 108\nvalue = [158, 9]\nclass = Died", fillcolor="#e58139f0"] ;
91 -> 92 ;
93 [label="gini = 0.057\nsamples = 24\nvalue = [33, 1]\nclass = Died", fillcolor="#e58139f7"] ;
92 -> 93 ;
94 [label="gini = 0.113\nsamples = 84\nvalue = [125, 8]\nclass = Died", fillcolor="#e58139ef"] ;
92 -> 94 ;
95 [label="Pclass <= 2.0\ngini = 0.142\nsamples = 6\nvalue = [12, 1]\nclass = Died", fillcolor="#e58139ea"] ;
91 -> 95 ;
96 [label="gini = 0.32\nsamples = 3\nvalue = [4, 1]\nclass = Died", fillcolor="#e58139bf"] ;
95 -> 96 ;
97 [label="gini = 0.0\nsamples = 3\nvalue = [8, 0]\nclass = Died", fillcolor="#e58139ff"] ;
95 -> 97 ;
98 [label="Fare <= 1.5\ngini = 0.175\nsamples = 60\nvalue = [84, 9]\nclass = Died", fillcolor="#e58139e4"] ;
90 -> 98 ;
99 [label="Pclass <= 2.5\ngini = 0.206\nsamples = 50\nvalue = [68, 9]\nclass = Died", fillcolor="#e58139dd"] ;
98 -> 99 ;
100 [label="Age <= 2.5\ngini = 0.252\nsamples = 17\nvalue = [23, 4]\nclass = Died", fillcolor="#e58139d3"] ;
99 -> 100 ;
101 [label="gini = 0.198\nsamples = 11\nvalue = [16, 2]\nclass = Died", fillcolor="#e58139df"] ;
100 -> 101 ;
102 [label="Age <= 3.5\ngini = 0.346\nsamples = 6\nvalue = [7, 2]\nclass = Died", fillcolor="#e58139b6"] ;
100 -> 102 ;
103 [label="gini = 0.408\nsamples = 5\nvalue = [5, 2]\nclass = Died", fillcolor="#e5813999"] ;
102 -> 103 ;
104 [label="gini = 0.0\nsamples = 1\nvalue = [2, 0]\nclass = Died", fillcolor="#e58139ff"] ;
102 -> 104 ;
105 [label="Age <= 2.5\ngini = 0.18\nsamples = 33\nvalue = [45, 5]\nclass = Died", fillcolor="#e58139e3"] ;
99 -> 105 ;
106 [label="gini = 0.194\nsamples = 29\nvalue = [41, 5]\nclass = Died", fillcolor="#e58139e0"] ;
105 -> 106 ;
107 [label="gini = 0.0\nsamples = 4\nvalue = [4, 0]\nclass = Died", fillcolor="#e58139ff"] ;
105 -> 107 ;
108 [label="gini = 0.0\nsamples = 10\nvalue = [16, 0]\nclass = Died", fillcolor="#e58139ff"] ;
98 -> 108 ;
109 [label="Fare <= 1.5\ngini = 0.257\nsamples = 26\nvalue = [28, 5]\nclass = Died", fillcolor="#e58139d1"] ;
89 -> 109 ;
110 [label="Age <= 1.5\ngini = 0.227\nsamples = 19\nvalue = [20, 3]\nclass = Died", fillcolor="#e58139d9"] ;
109 -> 110 ;
111 [label="Pclass <= 2.5\ngini = 0.291\nsamples = 13\nvalue = [14, 3]\nclass = Died", fillcolor="#e58139c8"] ;
110 -> 111 ;
112 [label="gini = 0.444\nsamples = 2\nvalue = [2, 1]\nclass = Died", fillcolor="#e581397f"] ;
111 -> 112 ;
113 [label="gini = 0.245\nsamples = 11\nvalue = [12, 2]\nclass = Died", fillcolor="#e58139d4"] ;
111 -> 113 ;
114 [label="gini = 0.0\nsamples = 6\nvalue = [6, 0]\nclass = Died", fillcolor="#e58139ff"] ;
110 -> 114 ;
115 [label="Pclass <= 2.5\ngini = 0.32\nsamples = 7\nvalue = [8, 2]\nclass = Died", fillcolor="#e58139bf"] ;
109 -> 115 ;
116 [label="Age <= 1.5\ngini = 0.198\nsamples = 6\nvalue = [8, 1]\nclass = Died", fillcolor="#e58139df"] ;
115 -> 116 ;
117 [label="gini = 0.0\nsamples = 2\nvalue = [4, 0]\nclass = Died", fillcolor="#e58139ff"] ;
116 -> 117 ;
118 [label="Pclass <= 1.5\ngini = 0.32\nsamples = 4\nvalue = [4, 1]\nclass = Died", fillcolor="#e58139bf"] ;
116 -> 118 ;
119 [label="gini = 0.444\nsamples = 3\nvalue = [2, 1]\nclass = Died", fillcolor="#e581397f"] ;
118 -> 119 ;
120 [label="gini = 0.0\nsamples = 1\nvalue = [2, 0]\nclass = Died", fillcolor="#e58139ff"] ;
118 -> 120 ;
121 [label="gini = 0.0\nsamples = 1\nvalue = [0, 1]\nclass = Survived", fillcolor="#399de5ff"] ;
115 -> 121 ;
122 [label="gini = 0.0\nsamples = 23\nvalue = [39, 0]\nclass = Died", fillcolor="#e58139ff"] ;
80 -> 122 ;
123 [label="Age <= 0.5\ngini = 0.17\nsamples = 35\nvalue = [58, 6]\nclass = Died", fillcolor="#e58139e5"] ;
77 -> 123 ;
124 [label="Fare <= 1.5\ngini = 0.5\nsamples = 2\nvalue = [2, 2]\nclass = Died", fillcolor="#e5813900"] ;
123 -> 124 ;
125 [label="gini = 0.0\nsamples = 1\nvalue = [0, 2]\nclass = Survived", fillcolor="#399de5ff"] ;
124 -> 125 ;
126 [label="gini = 0.0\nsamples = 1\nvalue = [2, 0]\nclass = Died", fillcolor="#e58139ff"] ;
124 -> 126 ;
127 [label="Fare <= 1.5\ngini = 0.124\nsamples = 33\nvalue = [56, 4]\nclass = Died", fillcolor="#e58139ed"] ;
123 -> 127 ;
128 [label="Pclass <= 2.5\ngini = 0.172\nsamples = 11\nvalue = [19, 2]\nclass = Died", fillcolor="#e58139e4"] ;
127 -> 128 ;
129 [label="gini = 0.0\nsamples = 2\nvalue = [6, 0]\nclass = Died", fillcolor="#e58139ff"] ;
128 -> 129 ;
130 [label="Age <= 1.5\ngini = 0.231\nsamples = 9\nvalue = [13, 2]\nclass = Died", fillcolor="#e58139d8"] ;
128 -> 130 ;
131 [label="Embarked <= 1.0\ngini = 0.278\nsamples = 6\nvalue = [10, 2]\nclass = Died", fillcolor="#e58139cc"] ;
130 -> 131 ;
132 [label="gini = 0.32\nsamples = 5\nvalue = [8, 2]\nclass = Died", fillcolor="#e58139bf"] ;
131 -> 132 ;
133 [label="gini = 0.0\nsamples = 1\nvalue = [2, 0]\nclass = Died", fillcolor="#e58139ff"] ;
131 -> 133 ;
134 [label="gini = 0.0\nsamples = 3\nvalue = [3, 0]\nclass = Died", fillcolor="#e58139ff"] ;
130 -> 134 ;
135 [label="Pclass <= 2.5\ngini = 0.097\nsamples = 22\nvalue = [37, 2]\nclass = Died", fillcolor="#e58139f1"] ;
127 -> 135 ;
136 [label="Embarked <= 0.5\ngini = 0.147\nsamples = 13\nvalue = [23, 2]\nclass = Died", fillcolor="#e58139e9"] ;
135 -> 136 ;
137 [label="Age <= 1.5\ngini = 0.153\nsamples = 12\nvalue = [22, 2]\nclass = Died", fillcolor="#e58139e8"] ;
136 -> 137 ;
138 [label="gini = 0.245\nsamples = 5\nvalue = [12, 2]\nclass = Died", fillcolor="#e58139d4"] ;
137 -> 138 ;
139 [label="gini = 0.0\nsamples = 7\nvalue = [10, 0]\nclass = Died", fillcolor="#e58139ff"] ;
137 -> 139 ;
140 [label="gini = 0.0\nsamples = 1\nvalue = [1, 0]\nclass = Died", fillcolor="#e58139ff"] ;
136 -> 140 ;
141 [label="gini = 0.0\nsamples = 9\nvalue = [14, 0]\nclass = Died", fillcolor="#e58139ff"] ;
135 -> 141 ;
142 [label="Pclass <= 2.5\ngini = 0.26\nsamples = 17\nvalue = [22, 4]\nclass = Died", fillcolor="#e58139d1"] ;
76 -> 142 ;
143 [label="gini = 0.0\nsamples = 12\nvalue = [18, 0]\nclass = Died", fillcolor="#e58139ff"] ;
142 -> 143 ;
144 [label="Age <= 1.5\ngini = 0.5\nsamples = 5\nvalue = [4, 4]\nclass = Died", fillcolor="#e5813900"] ;
142 -> 144 ;
145 [label="gini = 0.49\nsamples = 4\nvalue = [3, 4]\nclass = Survived", fillcolor="#399de540"] ;
144 -> 145 ;
146 [label="gini = 0.0\nsamples = 1\nvalue = [1, 0]\nclass = Died", fillcolor="#e58139ff"] ;
144 -> 146 ;
147 [label="Fare <= 2.5\ngini = 0.275\nsamples = 58\nvalue = [81, 16]\nclass = Died", fillcolor="#e58139cd"] ;
75 -> 147 ;
148 [label="FamilySize <= 3.5\ngini = 0.362\nsamples = 37\nvalue = [45, 14]\nclass = Died", fillcolor="#e58139b0"] ;
147 -> 148 ;
149 [label="Fare <= 1.5\ngini = 0.444\nsamples = 25\nvalue = [26, 13]\nclass = Died", fillcolor="#e581397f"] ;
148 -> 149 ;
150 [label="Age <= 0.5\ngini = 0.32\nsamples = 7\nvalue = [8, 2]\nclass = Died", fillcolor="#e58139bf"] ;
149 -> 150 ;
151 [label="Embarked <= 0.5\ngini = 0.5\nsamples = 2\nvalue = [2, 2]\nclass = Died", fillcolor="#e5813900"] ;
150 -> 151 ;
152 [label="gini = 0.0\nsamples = 1\nvalue = [0, 2]\nclass = Survived", fillcolor="#399de5ff"] ;
151 -> 152 ;
153 [label="gini = 0.0\nsamples = 1\nvalue = [2, 0]\nclass = Died", fillcolor="#e58139ff"] ;
151 -> 153 ;
154 [label="gini = 0.0\nsamples = 5\nvalue = [6, 0]\nclass = Died", fillcolor="#e58139ff"] ;
150 -> 154 ;
155 [label="Age <= 0.5\ngini = 0.471\nsamples = 18\nvalue = [18, 11]\nclass = Died", fillcolor="#e5813963"] ;
149 -> 155 ;
156 [label="Pclass <= 2.5\ngini = 0.337\nsamples = 9\nvalue = [3, 11]\nclass = Survived", fillcolor="#399de5b9"] ;
155 -> 156 ;
157 [label="gini = 0.0\nsamples = 2\nvalue = [0, 3]\nclass = Survived", fillcolor="#399de5ff"] ;
156 -> 157 ;
158 [label="Embarked <= 1.5\ngini = 0.397\nsamples = 7\nvalue = [3, 8]\nclass = Survived", fillcolor="#399de59f"] ;
156 -> 158 ;
159 [label="Embarked <= 0.5\ngini = 0.444\nsamples = 6\nvalue = [3, 6]\nclass = Survived", fillcolor="#399de57f"] ;
158 -> 159 ;
160 [label="gini = 0.444\nsamples = 4\nvalue = [2, 4]\nclass = Survived", fillcolor="#399de57f"] ;
159 -> 160 ;
161 [label="gini = 0.444\nsamples = 2\nvalue = [1, 2]\nclass = Survived", fillcolor="#399de57f"] ;
159 -> 161 ;
162 [label="gini = 0.0\nsamples = 1\nvalue = [0, 2]\nclass = Survived", fillcolor="#399de5ff"] ;
158 -> 162 ;
163 [label="gini = 0.0\nsamples = 9\nvalue = [15, 0]\nclass = Died", fillcolor="#e58139ff"] ;
155 -> 163 ;
164 [label="Fare <= 1.5\ngini = 0.095\nsamples = 12\nvalue = [19, 1]\nclass = Died", fillcolor="#e58139f2"] ;
148 -> 164 ;
165 [label="gini = 0.0\nsamples = 1\nvalue = [2, 0]\nclass = Died", fillcolor="#e58139ff"] ;
164 -> 165 ;
166 [label="Age <= 0.5\ngini = 0.105\nsamples = 11\nvalue = [17, 1]\nclass = Died", fillcolor="#e58139f0"] ;
164 -> 166 ;
167 [label="FamilySize <= 4.5\ngini = 0.219\nsamples = 6\nvalue = [7, 1]\nclass = Died", fillcolor="#e58139db"] ;
166 -> 167 ;
168 [label="gini = 0.0\nsamples = 1\nvalue = [0, 1]\nclass = Survived", fillcolor="#399de5ff"] ;
167 -> 168 ;
169 [label="gini = 0.0\nsamples = 5\nvalue = [7, 0]\nclass = Died", fillcolor="#e58139ff"] ;
167 -> 169 ;
170 [label="gini = 0.0\nsamples = 5\nvalue = [10, 0]\nclass = Died", fillcolor="#e58139ff"] ;
166 -> 170 ;
171 [label="Pclass <= 2.5\ngini = 0.1\nsamples = 21\nvalue = [36, 2]\nclass = Died", fillcolor="#e58139f1"] ;
147 -> 171 ;
172 [label="Embarked <= 0.5\ngini = 0.245\nsamples = 8\nvalue = [12, 2]\nclass = Died", fillcolor="#e58139d4"] ;
171 -> 172 ;
173 [label="gini = 0.0\nsamples = 6\nvalue = [10, 0]\nclass = Died", fillcolor="#e58139ff"] ;
172 -> 173 ;
174 [label="Age <= 0.5\ngini = 0.5\nsamples = 2\nvalue = [2, 2]\nclass = Died", fillcolor="#e5813900"] ;
172 -> 174 ;
175 [label="gini = 0.0\nsamples = 1\nvalue = [0, 2]\nclass = Survived", fillcolor="#399de5ff"] ;
174 -> 175 ;
176 [label="gini = 0.0\nsamples = 1\nvalue = [2, 0]\nclass = Died", fillcolor="#e58139ff"] ;
174 -> 176 ;
177 [label="gini = 0.0\nsamples = 13\nvalue = [24, 0]\nclass = Died", fillcolor="#e58139ff"] ;
171 -> 177 ;
178 [label="Pclass <= 2.5\ngini = 0.37\nsamples = 154\nvalue = [61, 188]\nclass = Survived", fillcolor="#399de5ac"] ;
74 -> 178 ;
179 [label="Pclass <= 1.5\ngini = 0.07\nsamples = 54\nvalue = [3, 80]\nclass = Survived", fillcolor="#399de5f5"] ;
178 -> 179 ;
180 [label="gini = 0.0\nsamples = 15\nvalue = [0, 22]\nclass = Survived", fillcolor="#399de5ff"] ;
179 -> 180 ;
181 [label="FamilySize <= 1.5\ngini = 0.094\nsamples = 39\nvalue = [3, 58]\nclass = Survived", fillcolor="#399de5f2"] ;
179 -> 181 ;
182 [label="gini = 0.0\nsamples = 15\nvalue = [0, 22]\nclass = Survived", fillcolor="#399de5ff"] ;
181 -> 182 ;
183 [label="Fare <= 2.5\ngini = 0.142\nsamples = 24\nvalue = [3, 36]\nclass = Survived", fillcolor="#399de5ea"] ;
181 -> 183 ;
184 [label="FamilySize <= 2.5\ngini = 0.18\nsamples = 18\nvalue = [3, 27]\nclass = Survived", fillcolor="#399de5e3"] ;
183 -> 184 ;
185 [label="Embarked <= 0.5\ngini = 0.266\nsamples = 12\nvalue = [3, 16]\nclass = Survived", fillcolor="#399de5cf"] ;
184 -> 185 ;
186 [label="Age <= 1.5\ngini = 0.337\nsamples = 8\nvalue = [3, 11]\nclass = Survived", fillcolor="#399de5b9"] ;
185 -> 186 ;
187 [label="Age <= 0.5\ngini = 0.444\nsamples = 4\nvalue = [2, 4]\nclass = Survived", fillcolor="#399de57f"] ;
186 -> 187 ;
188 [label="gini = 0.0\nsamples = 1\nvalue = [0, 2]\nclass = Survived", fillcolor="#399de5ff"] ;
187 -> 188 ;
189 [label="gini = 0.5\nsamples = 3\nvalue = [2, 2]\nclass = Died", fillcolor="#e5813900"] ;
187 -> 189 ;
190 [label="gini = 0.219\nsamples = 4\nvalue = [1, 7]\nclass = Survived", fillcolor="#399de5db"] ;
186 -> 190 ;
191 [label="gini = 0.0\nsamples = 4\nvalue = [0, 5]\nclass = Survived", fillcolor="#399de5ff"] ;
185 -> 191 ;
192 [label="gini = 0.0\nsamples = 6\nvalue = [0, 11]\nclass = Survived", fillcolor="#399de5ff"] ;
184 -> 192 ;
193 [label="gini = 0.0\nsamples = 6\nvalue = [0, 9]\nclass = Survived", fillcolor="#399de5ff"] ;
183 -> 193 ;
194 [label="FamilySize <= 4.5\ngini = 0.455\nsamples = 100\nvalue = [58, 108]\nclass = Survived", fillcolor="#399de576"] ;
178 -> 194 ;
195 [label="Age <= 1.5\ngini = 0.382\nsamples = 82\nvalue = [35, 101]\nclass = Survived", fillcolor="#399de5a7"] ;
194 -> 195 ;
196 [label="Fare <= 0.5\ngini = 0.427\nsamples = 62\nvalue = [33, 74]\nclass = Survived", fillcolor="#399de58d"] ;
195 -> 196 ;
197 [label="gini = 0.0\nsamples = 1\nvalue = [2, 0]\nclass = Died", fillcolor="#e58139ff"] ;
196 -> 197 ;
198 [label="Fare <= 1.5\ngini = 0.416\nsamples = 61\nvalue = [31, 74]\nclass = Survived", fillcolor="#399de594"] ;
196 -> 198 ;
199 [label="Embarked <= 0.5\ngini = 0.375\nsamples = 44\nvalue = [18, 54]\nclass = Survived", fillcolor="#399de5aa"] ;
198 -> 199 ;
200 [label="IsAlone_1 <= 0.5\ngini = 0.44\nsamples = 29\nvalue = [16, 33]\nclass = Survived", fillcolor="#399de583"] ;
199 -> 200 ;
201 [label="Age <= 0.5\ngini = 0.142\nsamples = 8\nvalue = [1, 12]\nclass = Survived", fillcolor="#399de5ea"] ;
200 -> 201 ;
202 [label="gini = 0.0\nsamples = 3\nvalue = [0, 6]\nclass = Survived", fillcolor="#399de5ff"] ;
201 -> 202 ;
203 [label="FamilySize <= 2.5\ngini = 0.245\nsamples = 5\nvalue = [1, 6]\nclass = Survived", fillcolor="#399de5d4"] ;
201 -> 203 ;
204 [label="gini = 0.32\nsamples = 3\nvalue = [1, 4]\nclass = Survived", fillcolor="#399de5bf"] ;
203 -> 204 ;
205 [label="gini = 0.0\nsamples = 2\nvalue = [0, 2]\nclass = Survived", fillcolor="#399de5ff"] ;
203 -> 205 ;
206 [label="gini = 0.486\nsamples = 21\nvalue = [15, 21]\nclass = Survived", fillcolor="#399de549"] ;
200 -> 206 ;
207 [label="FamilySize <= 2.5\ngini = 0.159\nsamples = 15\nvalue = [2, 21]\nclass = Survived", fillcolor="#399de5e7"] ;
199 -> 207 ;
208 [label="gini = 0.0\nsamples = 13\nvalue = [0, 20]\nclass = Survived", fillcolor="#399de5ff"] ;
207 -> 208 ;
209 [label="Embarked <= 1.5\ngini = 0.444\nsamples = 2\nvalue = [2, 1]\nclass = Died", fillcolor="#e581397f"] ;
207 -> 209 ;
210 [label="gini = 0.0\nsamples = 1\nvalue = [0, 1]\nclass = Survived", fillcolor="#399de5ff"] ;
209 -> 210 ;
211 [label="gini = 0.0\nsamples = 1\nvalue = [2, 0]\nclass = Died", fillcolor="#e58139ff"] ;
209 -> 211 ;
212 [label="IsAlone_0 <= 0.5\ngini = 0.478\nsamples = 17\nvalue = [13, 20]\nclass = Survived", fillcolor="#399de559"] ;
198 -> 212 ;
213 [label="Embarked <= 1.5\ngini = 0.5\nsamples = 2\nvalue = [1, 1]\nclass = Died", fillcolor="#e5813900"] ;
212 -> 213 ;
214 [label="gini = 0.0\nsamples = 1\nvalue = [1, 0]\nclass = Died", fillcolor="#e58139ff"] ;
213 -> 214 ;
215 [label="gini = 0.0\nsamples = 1\nvalue = [0, 1]\nclass = Survived", fillcolor="#399de5ff"] ;
213 -> 215 ;
216 [label="FamilySize <= 3.5\ngini = 0.475\nsamples = 15\nvalue = [12, 19]\nclass = Survived", fillcolor="#399de55e"] ;
212 -> 216 ;
217 [label="FamilySize <= 2.5\ngini = 0.497\nsamples = 13\nvalue = [12, 14]\nclass = Survived", fillcolor="#399de524"] ;
216 -> 217 ;
218 [label="Age <= 0.5\ngini = 0.48\nsamples = 6\nvalue = [4, 6]\nclass = Survived", fillcolor="#399de555"] ;
217 -> 218 ;
219 [label="gini = 0.0\nsamples = 1\nvalue = [0, 1]\nclass = Survived", fillcolor="#399de5ff"] ;
218 -> 219 ;
220 [label="Embarked <= 0.5\ngini = 0.494\nsamples = 5\nvalue = [4, 5]\nclass = Survived", fillcolor="#399de533"] ;
218 -> 220 ;
221 [label="gini = 0.32\nsamples = 3\nvalue = [1, 4]\nclass = Survived", fillcolor="#399de5bf"] ;
220 -> 221 ;
222 [label="Embarked <= 1.5\ngini = 0.375\nsamples = 2\nvalue = [3, 1]\nclass = Died", fillcolor="#e58139aa"] ;
220 -> 222 ;
223 [label="gini = 0.0\nsamples = 1\nvalue = [3, 0]\nclass = Died", fillcolor="#e58139ff"] ;
222 -> 223 ;
224 [label="gini = 0.0\nsamples = 1\nvalue = [0, 1]\nclass = Survived", fillcolor="#399de5ff"] ;
222 -> 224 ;
225 [label="Embarked <= 0.5\ngini = 0.5\nsamples = 7\nvalue = [8, 8]\nclass = Died", fillcolor="#e5813900"] ;
217 -> 225 ;
226 [label="gini = 0.469\nsamples = 4\nvalue = [5, 3]\nclass = Died", fillcolor="#e5813966"] ;
225 -> 226 ;
227 [label="Age <= 0.5\ngini = 0.469\nsamples = 3\nvalue = [3, 5]\nclass = Survived", fillcolor="#399de566"] ;
225 -> 227 ;
228 [label="gini = 0.48\nsamples = 2\nvalue = [3, 2]\nclass = Died", fillcolor="#e5813955"] ;
227 -> 228 ;
229 [label="gini = 0.0\nsamples = 1\nvalue = [0, 3]\nclass = Survived", fillcolor="#399de5ff"] ;
227 -> 229 ;
230 [label="gini = 0.0\nsamples = 2\nvalue = [0, 5]\nclass = Survived", fillcolor="#399de5ff"] ;
216 -> 230 ;
231 [label="Embarked <= 1.5\ngini = 0.128\nsamples = 20\nvalue = [2, 27]\nclass = Survived", fillcolor="#399de5ec"] ;
195 -> 231 ;
232 [label="IsAlone_0 <= 0.5\ngini = 0.219\nsamples = 12\nvalue = [2, 14]\nclass = Survived", fillcolor="#399de5db"] ;
231 -> 232 ;
233 [label="gini = 0.0\nsamples = 4\nvalue = [0, 7]\nclass = Survived", fillcolor="#399de5ff"] ;
232 -> 233 ;
234 [label="FamilySize <= 3.5\ngini = 0.346\nsamples = 8\nvalue = [2, 7]\nclass = Survived", fillcolor="#399de5b6"] ;
232 -> 234 ;
235 [label="Embarked <= 0.5\ngini = 0.245\nsamples = 6\nvalue = [1, 6]\nclass = Survived", fillcolor="#399de5d4"] ;
234 -> 235 ;
236 [label="gini = 0.0\nsamples = 5\nvalue = [0, 6]\nclass = Survived", fillcolor="#399de5ff"] ;
235 -> 236 ;
237 [label="gini = 0.0\nsamples = 1\nvalue = [1, 0]\nclass = Died", fillcolor="#e58139ff"] ;
235 -> 237 ;
238 [label="gini = 0.5\nsamples = 2\nvalue = [1, 1]\nclass = Died", fillcolor="#e5813900"] ;
234 -> 238 ;
239 [label="gini = 0.0\nsamples = 8\nvalue = [0, 13]\nclass = Survived", fillcolor="#399de5ff"] ;
231 -> 239 ;
240 [label="Fare <= 1.5\ngini = 0.358\nsamples = 18\nvalue = [23, 7]\nclass = Died", fillcolor="#e58139b1"] ;
194 -> 240 ;
241 [label="gini = 0.0\nsamples = 1\nvalue = [0, 3]\nclass = Survived", fillcolor="#399de5ff"] ;
240 -> 241 ;
242 [label="Embarked <= 1.0\ngini = 0.252\nsamples = 17\nvalue = [23, 4]\nclass = Died", fillcolor="#e58139d3"] ;
240 -> 242 ;
243 [label="FamilySize <= 7.5\ngini = 0.26\nsamples = 16\nvalue = [22, 4]\nclass = Died", fillcolor="#e58139d1"] ;
242 -> 243 ;
244 [label="FamilySize <= 5.5\ngini = 0.117\nsamples = 10\nvalue = [15, 1]\nclass = Died", fillcolor="#e58139ee"] ;
243 -> 244 ;
245 [label="Age <= 1.5\ngini = 0.32\nsamples = 4\nvalue = [4, 1]\nclass = Died", fillcolor="#e58139bf"] ;
244 -> 245 ;
246 [label="gini = 0.0\nsamples = 3\nvalue = [4, 0]\nclass = Died", fillcolor="#e58139ff"] ;
245 -> 246 ;
247 [label="gini = 0.0\nsamples = 1\nvalue = [0, 1]\nclass = Survived", fillcolor="#399de5ff"] ;
245 -> 247 ;
248 [label="gini = 0.0\nsamples = 6\nvalue = [11, 0]\nclass = Died", fillcolor="#e58139ff"] ;
244 -> 248 ;
249 [label="Age <= 1.5\ngini = 0.42\nsamples = 6\nvalue = [7, 3]\nclass = Died", fillcolor="#e5813992"] ;
243 -> 249 ;
250 [label="FamilySize <= 9.5\ngini = 0.5\nsamples = 5\nvalue = [3, 3]\nclass = Died", fillcolor="#e5813900"] ;
249 -> 250 ;
251 [label="gini = 0.444\nsamples = 2\nvalue = [2, 1]\nclass = Died", fillcolor="#e581397f"] ;
250 -> 251 ;
252 [label="gini = 0.444\nsamples = 3\nvalue = [1, 2]\nclass = Survived", fillcolor="#399de57f"] ;
250 -> 252 ;
253 [label="gini = 0.0\nsamples = 1\nvalue = [4, 0]\nclass = Died", fillcolor="#e58139ff"] ;
249 -> 253 ;
254 [label="gini = 0.0\nsamples = 1\nvalue = [1, 0]\nclass = Died", fillcolor="#e58139ff"] ;
242 -> 254 ;
}